#mdl#2#1845
#rdr#16/36/0
40:u1:%x[-2,17]/%x[-1,17]/%x[0,17]/%x[1,17],
31:*2:%x[-1,17]/%x[-2,17]/%x[0,20],
29:*3:%x[0,4]/%x[0,17]/%x[-1,17],
30:*4:%x[0,36]/%x[0,17]/%x[-1,17],
40:u5:%x[0,27]/%x[0,17]/%x[-1,17]/%x[-2,17],
30:*6:%x[0,12]/%x[0,17]/%x[-1,17],
30:*7:%x[0,22]/%x[0,17]/%x[-1,17],
30:*8:%x[0,23]/%x[0,17]/%x[-1,17],
20:*9:%x[0,22]/%x[0,36],
21:*10:%x[0,25]/%x[0,20],
31:*11:%x[0,25]/%x[-1,17]/%x[0,17],
40:u12:%x[0,29]/%x[0,17]/%x[-1,17]/%x[0,22],
40:u13:%x[0,31]/%x[0,17]/%x[-1,17]/%x[0,22],
31:u14:%x[0,33]/%x[0,17]/%x[-1,17],
21:u15:%x[0,33]/%x[0,20],
3:*16,
#qrk#3
1:O,
1:B,
1:I,
#qrk#2479
30:u1:_x-2/_x-1/TEXT/post-trigger,
18:*2:_x-1/_x-2/false,
14:*3:0/TEXT/_x-1,
14:*4:1/TEXT/_x-1,
19:u5:0/TEXT/_x-1/_x-2,
14:*6:2/TEXT/_x-1,
14:*7:0/TEXT/_x-1,
14:*8:0/TEXT/_x-1,
6:*9:0/1,
11:*10:2/false,
15:*11:2/_x-1/TEXT,
17:u12:3/TEXT/_x-1/0,
17:u13:0/TEXT/_x-1/0,
16:u14:-3/TEXT/_x-1,
12:u15:-3/false,
3:*16,
30:u1:_x-1/TEXT/post-trigger/date,
18:*2:TEXT/_x-1/false,
22:*3:0/post-trigger/TEXT,
22:*4:1/post-trigger/TEXT,
27:u5:0/post-trigger/TEXT/_x-1,
22:*6:2/post-trigger/TEXT,
22:*7:0/post-trigger/TEXT,
22:*8:0/post-trigger/TEXT,
23:*11:2/TEXT/post-trigger,
25:u12:0/post-trigger/TEXT/0,
25:u13:0/post-trigger/TEXT/0,
24:u14:-3/post-trigger/TEXT,
30:u1:TEXT/post-trigger/date/TEXT,
26:*2:post-trigger/TEXT/false,
22:*3:0/date/post-trigger,
22:*4:1/date/post-trigger,
27:u5:0/date/post-trigger/TEXT,
22:*6:2/date/post-trigger,
22:*7:0/date/post-trigger,
22:*8:0/date/post-trigger,
23:*11:2/post-trigger/date,
25:u12:0/date/post-trigger/0,
25:u13:1/date/post-trigger/0,
24:u14:-3/date/post-trigger,
30:u1:post-trigger/date/TEXT/null,
26:*2:date/post-trigger/false,
14:*3:0/TEXT/date,
14:*4:1/TEXT/date,
27:u5:0/TEXT/date/post-trigger,
14:*6:2/TEXT/date,
14:*7:0/TEXT/date,
14:*8:0/TEXT/date,
15:*11:2/date/TEXT,
17:u12:0/TEXT/date/0,
17:u13:1/TEXT/date/0,
16:u14:-3/TEXT/date,
22:u1:date/TEXT/null/null,
18:*2:TEXT/date/false,
14:*3:0/null/TEXT,
14:*4:1/null/TEXT,
19:u5:0/null/TEXT/date,
14:*6:2/null/TEXT,
14:*7:0/null/TEXT,
14:*8:0/null/TEXT,
15:*11:2/TEXT/null,
17:u12:0/null/TEXT/0,
17:u13:1/null/TEXT/0,
16:u14:-3/null/TEXT,
22:u1:TEXT/null/null/null,
18:*2:null/TEXT/false,
14:*3:0/null/null,
14:*4:1/null/null,
19:u5:0/null/null/TEXT,
14:*6:2/null/null,
14:*7:0/null/null,
14:*8:0/null/null,
15:*11:2/null/null,
17:u12:0/null/null/0,
17:u13:1/null/null/0,
16:u14:-3/null/null,
22:u1:null/null/null/null,
18:*2:null/null/false,
19:u5:0/null/null/null,
22:u1:null/null/null/TEXT,
22:u1:null/null/TEXT/_x+1,
14:*3:0/TEXT/null,
14:*4:1/TEXT/null,
19:u5:0/TEXT/null/null,
14:*6:2/TEXT/null,
14:*7:0/TEXT/null,
14:*8:0/TEXT/null,
15:*11:2/null/TEXT,
17:u12:0/TEXT/null/0,
17:u13:1/TEXT/null/0,
16:u14:-3/TEXT/null,
22:u1:_x-2/_x-1/TEXT/TEXT,
14:*3:1/TEXT/_x-1,
15:*6:-3/TEXT/_x-1,
17:u12:0/TEXT/_x-1/0,
17:u13:2/TEXT/_x-1/0,
22:u1:_x-1/TEXT/TEXT/date,
14:*3:1/TEXT/TEXT,
14:*4:1/TEXT/TEXT,
19:u5:0/TEXT/TEXT/_x-1,
15:*6:-3/TEXT/TEXT,
14:*7:0/TEXT/TEXT,
14:*8:0/TEXT/TEXT,
15:*11:2/TEXT/TEXT,
17:u12:0/TEXT/TEXT/0,
17:u13:2/TEXT/TEXT/0,
16:u14:-3/TEXT/TEXT,
22:u1:TEXT/TEXT/date/TEXT,
18:*2:TEXT/TEXT/false,
14:*3:1/date/TEXT,
14:*4:1/date/TEXT,
19:u5:0/date/TEXT/TEXT,
15:*6:-3/date/TEXT,
14:*7:0/date/TEXT,
14:*8:0/date/TEXT,
15:*11:2/TEXT/date,
17:u12:0/date/TEXT/0,
17:u13:2/date/TEXT/0,
16:u14:-3/date/TEXT,
22:u1:TEXT/date/TEXT/TEXT,
18:*2:date/TEXT/false,
14:*3:1/TEXT/date,
19:u5:0/TEXT/date/TEXT,
15:*6:-3/TEXT/date,
17:u12:1/TEXT/date/0,
17:u13:2/TEXT/date/0,
22:u1:date/TEXT/TEXT/_x+1,
19:u5:0/TEXT/TEXT/date,
17:u12:1/TEXT/TEXT/0,
17:u13:3/TEXT/_x-1/0,
17:u13:3/TEXT/TEXT/0,
17:u13:3/date/TEXT/0,
17:u13:3/TEXT/date/0,
22:u1:_x-2/_x-1/null/null,
14:*3:0/null/_x-1,
14:*4:2/null/_x-1,
19:u5:0/null/_x-1/_x-2,
15:*6:-3/null/_x-1,
14:*7:0/null/_x-1,
14:*8:0/null/_x-1,
6:*9:0/2,
15:*11:2/_x-1/null,
17:u12:2/null/_x-1/0,
17:u13:3/null/_x-1/0,
15:u14:0/null/_x-1,
11:u15:0/false,
22:u1:_x-1/null/null/date,
18:*2:null/_x-1/false,
14:*4:2/null/null,
19:u5:0/null/null/_x-1,
15:*6:-3/null/null,
17:u12:2/null/null/0,
17:u13:3/null/null/0,
15:u14:0/null/null,
22:u1:null/null/date/date,
14:*3:0/date/null,
14:*4:2/date/null,
19:u5:0/date/null/null,
15:*6:-3/date/null,
14:*7:0/date/null,
14:*8:0/date/null,
15:*11:2/null/date,
17:u12:2/date/null/0,
17:u13:3/date/null/0,
15:u14:1/date/null,
11:u15:1/false,
22:u1:null/date/date/date,
18:*2:date/null/false,
14:*3:0/date/date,
14:*4:2/date/date,
19:u5:0/date/date/null,
15:*6:-3/date/date,
14:*7:0/date/date,
14:*8:0/date/date,
15:*11:2/date/date,
17:u12:2/date/date/0,
17:u13:3/date/date/0,
15:u14:1/date/date,
22:u1:date/date/date/null,
18:*2:date/date/false,
19:u5:0/date/date/date,
22:u1:date/date/null/null,
14:*3:0/null/date,
14:*4:2/null/date,
19:u5:0/null/date/date,
15:*6:-3/null/date,
14:*7:1/null/date,
14:*8:0/null/date,
6:*9:1/2,
15:*11:2/date/null,
17:u12:2/null/date/1,
17:u13:3/null/date/1,
15:u14:1/null/date,
22:u1:date/null/null/TEXT,
18:*2:null/date/false,
19:u5:0/null/null/date,
14:*7:1/null/null,
17:u12:2/null/null/1,
17:u13:3/null/null/1,
15:u14:1/null/null,
22:u1:null/null/TEXT/TEXT,
14:*4:2/TEXT/null,
15:*6:-3/TEXT/null,
14:*7:1/TEXT/null,
17:u12:2/TEXT/null/1,
17:u13:3/TEXT/null/1,
15:u14:1/TEXT/null,
22:u1:null/TEXT/TEXT/_x+1,
18:*2:TEXT/null/false,
14:*3:0/TEXT/TEXT,
14:*4:2/TEXT/TEXT,
19:u5:0/TEXT/TEXT/null,
14:*7:1/TEXT/TEXT,
17:u12:2/TEXT/TEXT/1,
17:u13:3/TEXT/TEXT/1,
15:u14:1/TEXT/TEXT,
14:*3:2/TEXT/_x-1,
14:*4:2/TEXT/_x-1,
14:*7:1/TEXT/_x-1,
17:u12:2/TEXT/_x-1/1,
17:u13:3/TEXT/_x-1/1,
15:u14:3/TEXT/_x-1,
11:u15:3/false,
14:*3:2/TEXT/TEXT,
15:u14:3/TEXT/TEXT,
14:*3:2/date/TEXT,
14:*4:2/date/TEXT,
14:*7:1/date/TEXT,
17:u12:2/date/TEXT/1,
17:u13:3/date/TEXT/1,
15:u14:3/date/TEXT,
14:*3:2/TEXT/date,
14:*4:2/TEXT/date,
14:*7:1/TEXT/date,
17:u12:2/TEXT/date/1,
17:u13:3/TEXT/date/1,
15:u14:3/TEXT/date,
14:*4:3/null/_x-1,
14:*7:1/null/_x-1,
6:*9:1/3,
17:u12:1/null/_x-1/1,
17:u13:0/null/_x-1/1,
15:u14:3/null/_x-1,
14:*4:3/null/null,
17:u12:1/null/null/1,
17:u13:0/null/null/1,
15:u14:3/null/null,
22:u1:null/null/date/TEXT,
14:*4:3/date/null,
14:*7:1/date/null,
17:u12:1/date/null/1,
17:u13:0/date/null/1,
15:u14:3/date/null,
22:u1:null/date/TEXT/TEXT,
14:*4:3/TEXT/date,
19:u5:0/TEXT/date/null,
17:u12:1/TEXT/date/1,
17:u13:0/TEXT/date/1,
14:*4:3/TEXT/TEXT,
17:u12:1/TEXT/TEXT/1,
17:u13:0/TEXT/TEXT/1,
22:u1:_x-2/_x-1/null/TEXT,
17:u12:0/null/_x-1/1,
17:u13:3/null/_x-1/1,
22:u1:_x-1/null/TEXT/date,
14:*4:3/TEXT/null,
19:u5:0/TEXT/null/_x-1,
17:u12:0/TEXT/null/1,
15:u14:3/TEXT/null,
22:u1:null/TEXT/date/TEXT,
14:*3:0/date/TEXT,
14:*4:3/date/TEXT,
19:u5:0/date/TEXT/null,
17:u12:0/date/TEXT/1,
17:u12:0/TEXT/date/1,
17:u12:0/TEXT/TEXT/1,
17:u12:0/null/null/1,
17:u12:0/date/null/1,
17:u13:3/date/null/1,
17:u12:1/TEXT/null/1,
17:u12:1/date/TEXT/1,
14:*4:4/null/_x-1,
6:*9:1/4,
17:u12:3/null/_x-1/1,
14:*4:4/TEXT/null,
17:u12:3/TEXT/null/1,
14:*4:4/date/TEXT,
17:u12:3/date/TEXT/1,
14:*4:4/TEXT/date,
17:u12:3/TEXT/date/1,
14:*4:4/TEXT/TEXT,
17:u12:3/TEXT/TEXT/1,
14:*4:4/null/null,
17:u12:3/null/null/1,
14:*4:4/date/null,
17:u12:3/date/null/1,
22:u1:null/date/TEXT/date,
22:u1:date/TEXT/date/TEXT,
19:u5:0/date/TEXT/date,
14:*3:3/TEXT/null,
14:*3:3/date/TEXT,
14:*3:3/TEXT/date,
14:*3:3/TEXT/TEXT,
22:u1:null/date/date/TEXT,
14:*4:4/date/date,
14:*7:1/date/date,
17:u12:3/date/date/1,
17:u13:3/date/date/1,
15:u14:3/date/date,
22:u1:date/date/TEXT/TEXT,
19:u5:0/TEXT/date/date,
14:*7:2/null/_x-1,
6:*9:2/4,
17:u12:3/null/_x-1/2,
17:u13:3/null/_x-1/2,
14:*7:2/null/null,
17:u12:3/null/null/2,
17:u13:3/null/null/2,
14:*7:2/date/null,
17:u12:3/date/null/2,
17:u13:3/date/null/2,
14:*7:2/TEXT/date,
17:u12:3/TEXT/date/2,
17:u13:3/TEXT/date/2,
14:*7:2/TEXT/TEXT,
17:u12:3/TEXT/TEXT/2,
17:u13:3/TEXT/TEXT/2,
14:*7:2/TEXT/null,
17:u12:3/TEXT/null/2,
17:u13:3/TEXT/null/2,
14:*7:2/date/TEXT,
17:u12:3/date/TEXT/2,
17:u13:3/date/TEXT/2,
14:*4:4/TEXT/_x-1,
14:*7:2/TEXT/_x-1,
17:u12:1/TEXT/_x-1/2,
17:u13:3/TEXT/_x-1/2,
17:u12:1/TEXT/TEXT/2,
17:u12:1/date/TEXT/2,
17:u12:1/TEXT/date/2,
14:*4:1/null/_x-1,
14:*6:3/null/_x-1,
11:*10:3/false,
15:*11:3/_x-1/null,
17:u12:3/null/_x-1/0,
16:u14:-3/null/_x-1,
14:*6:3/TEXT/null,
15:*11:3/null/TEXT,
17:u12:3/TEXT/null/0,
17:u13:3/TEXT/null/0,
14:*6:3/date/TEXT,
15:*11:3/TEXT/date,
17:u12:3/date/TEXT/0,
22:u1:TEXT/date/TEXT/date,
14:*6:3/TEXT/date,
15:*11:3/date/TEXT,
17:u12:3/TEXT/date/0,
22:u1:date/TEXT/date/null,
22:u1:TEXT/date/null/null,
14:*4:1/null/date,
19:u5:0/null/date/TEXT,
14:*6:3/null/date,
14:*7:0/null/date,
15:*11:3/date/null,
17:u12:3/null/date/0,
17:u13:3/null/date/0,
16:u14:-3/null/date,
14:*6:3/null/null,
15:*11:3/null/null,
17:u12:3/null/null/0,
16:u14:-2/TEXT/null,
12:u15:-2/false,
14:*6:3/TEXT/TEXT,
15:*11:3/TEXT/TEXT,
17:u12:3/TEXT/TEXT/0,
16:u14:-2/TEXT/TEXT,
14:*6:2/null/_x-1,
15:u14:1/null/_x-1,
14:*4:1/date/null,
14:*6:2/date/null,
15:*11:3/null/date,
17:u12:3/date/null/0,
14:*4:1/date/date,
14:*6:2/date/date,
15:*11:3/date/date,
17:u12:3/date/date/0,
14:*6:2/null/date,
6:*9:1/1,
17:u12:3/null/date/1,
22:u1:date/null/null/null,
14:*6:2/TEXT/TEXT,
15:*11:3/_x-1/TEXT,
17:u12:3/TEXT/_x-1/1,
17:u13:1/TEXT/_x-1/1,
17:u13:1/TEXT/TEXT/1,
22:u1:TEXT/TEXT/date/null,
17:u13:1/date/TEXT/1,
17:u13:1/null/date/1,
15:u14:3/null/date,
17:u13:1/null/null/1,
17:u13:1/TEXT/null/1,
14:*4:3/TEXT/_x-1,
22:u1:null/null/date/null,
22:u1:null/date/null/date,
14:*4:4/null/date,
19:u5:0/null/date/null,
22:u1:date/null/date/TEXT,
19:u5:0/date/null/date,
22:u1:null/date/TEXT/null,
14:*4:4/null/TEXT,
15:*6:-3/null/TEXT,
14:*7:2/null/TEXT,
15:*11:3/TEXT/null,
17:u12:3/null/TEXT/2,
17:u13:3/null/TEXT/2,
15:u14:3/null/TEXT,
17:u13:0/null/_x-1/2,
17:u13:0/null/null/2,
17:*2:null/null/true,
14:*8:1/date/null,
10:*10:3/true,
17:u13:0/date/null/2,
10:u15:3/true,
17:*2:date/null/true,
14:*7:2/date/date,
14:*8:1/date/date,
17:u12:3/date/date/2,
17:u13:0/date/date/2,
17:*2:date/date/true,
14:*7:3/null/date,
14:*8:1/null/date,
6:*9:3/4,
17:u12:3/null/date/3,
17:u13:0/null/date/3,
14:*7:3/null/null,
14:*8:1/null/null,
17:u12:3/null/null/3,
17:u13:0/null/null/3,
14:*7:3/TEXT/null,
14:*8:1/TEXT/null,
17:u12:3/TEXT/null/3,
17:u13:1/TEXT/null/3,
14:*7:3/TEXT/TEXT,
14:*8:1/TEXT/TEXT,
17:u12:3/TEXT/TEXT/3,
17:u13:1/TEXT/TEXT/3,
14:*7:3/null/_x-1,
14:*8:1/null/_x-1,
17:u12:3/null/_x-1/3,
17:u13:1/null/_x-1/3,
17:u13:1/null/null/3,
14:*7:3/date/null,
14:*8:2/date/null,
17:u12:3/date/null/3,
17:u13:1/date/null/3,
14:*7:3/date/date,
14:*8:2/date/date,
17:u12:3/date/date/3,
17:u13:1/date/date/3,
14:*8:2/null/date,
17:u13:1/null/date/3,
14:*8:2/null/null,
14:*8:2/TEXT/null,
14:*8:2/TEXT/TEXT,
14:*8:2/null/_x-1,
14:*8:3/date/null,
14:*8:3/date/date,
14:*8:3/null/date,
14:*8:3/null/null,
14:*8:3/TEXT/null,
14:*8:3/TEXT/TEXT,
14:*7:3/TEXT/_x-1,
14:*8:3/TEXT/_x-1,
17:u12:3/TEXT/_x-1/3,
17:u13:3/TEXT/_x-1/3,
17:u13:3/TEXT/TEXT/3,
14:*7:3/date/TEXT,
14:*8:3/date/TEXT,
17:u12:3/date/TEXT/3,
17:u13:3/date/TEXT/3,
14:*7:3/TEXT/date,
14:*8:3/TEXT/date,
17:u12:3/TEXT/date/3,
17:u13:3/TEXT/date/3,
25:u1:_x-2/_x-1/null/trigger,
11:*10:1/false,
15:*11:1/_x-1/null,
17:u12:0/null/_x-1/0,
25:u1:_x-1/null/trigger/date,
17:*3:0/trigger/null,
17:*4:1/trigger/null,
22:u5:0/trigger/null/_x-1,
17:*6:3/trigger/null,
17:*7:0/trigger/null,
17:*8:0/trigger/null,
18:*11:1/null/trigger,
20:u12:0/trigger/null/0,
20:u13:3/trigger/null/0,
18:u14:1/trigger/null,
25:u1:null/trigger/date/date,
21:*2:trigger/null/false,
17:*3:0/date/trigger,
17:*4:1/date/trigger,
22:u5:0/date/trigger/null,
17:*6:3/date/trigger,
17:*7:0/date/trigger,
17:*8:0/date/trigger,
18:*11:1/trigger/date,
20:u12:0/date/trigger/0,
20:u13:3/date/trigger/0,
18:u14:1/date/trigger,
25:u1:trigger/date/date/date,
21:*2:date/trigger/false,
22:u5:0/date/date/trigger,
14:*6:3/date/date,
15:*11:1/date/date,
17:u12:0/date/date/0,
22:u1:date/date/date/date,
15:*11:1/date/null,
17:u12:0/null/date/1,
15:*11:1/null/null,
15:*11:1/null/TEXT,
15:*11:1/TEXT/TEXT,
14:*6:3/TEXT/_x-1,
15:*11:1/_x-1/TEXT,
17:u12:0/TEXT/_x-1/1,
15:u14:2/TEXT/_x-1,
11:u15:2/false,
15:u14:2/TEXT/TEXT,
15:*11:1/TEXT/date,
15:u14:2/date/TEXT,
15:*11:1/date/TEXT,
15:u14:2/TEXT/date,
30:u1:TEXT/TEXT/date/post-trigger,
14:*6:2/date/TEXT,
30:u1:TEXT/date/post-trigger/date,
22:*3:2/post-trigger/date,
22:*4:2/post-trigger/date,
27:u5:0/post-trigger/date/TEXT,
22:*6:2/post-trigger/date,
22:*7:1/post-trigger/date,
22:*8:0/post-trigger/date,
23:*11:1/date/post-trigger,
25:u12:0/post-trigger/date/1,
25:u13:3/post-trigger/date/1,
23:u14:3/post-trigger/date,
30:u1:date/post-trigger/date/TEXT,
26:*2:post-trigger/date/false,
22:*3:2/date/post-trigger,
22:*4:2/date/post-trigger,
27:u5:0/date/post-trigger/date,
22:*7:1/date/post-trigger,
23:*11:1/post-trigger/date,
25:u12:0/date/post-trigger/1,
25:u13:3/date/post-trigger/1,
23:u14:3/date/post-trigger,
30:u1:post-trigger/date/TEXT/TEXT,
30:u1:TEXT/date/post-trigger/TEXT,
30:u1:date/post-trigger/TEXT/_x+1,
22:*3:2/TEXT/post-trigger,
22:*4:2/TEXT/post-trigger,
27:u5:0/TEXT/post-trigger/date,
22:*6:2/TEXT/post-trigger,
22:*7:1/TEXT/post-trigger,
22:*8:0/TEXT/post-trigger,
23:*11:1/post-trigger/TEXT,
25:u12:0/TEXT/post-trigger/1,
25:u13:3/TEXT/post-trigger/1,
23:u14:3/TEXT/post-trigger,
15:*11:1/null/date,
32:u1:_x-2/_x-1/inside-trigger/TEXT,
24:*3:0/inside-trigger/_x-1,
24:*4:4/inside-trigger/_x-1,
29:u5:0/inside-trigger/_x-1/_x-2,
25:*6:-3/inside-trigger/_x-1,
24:*7:1/inside-trigger/_x-1,
24:*8:0/inside-trigger/_x-1,
25:*11:1/_x-1/inside-trigger,
27:u12:0/inside-trigger/_x-1/1,
27:u13:3/inside-trigger/_x-1/1,
25:u14:3/inside-trigger/_x-1,
32:u1:_x-1/inside-trigger/TEXT/date,
28:*2:inside-trigger/_x-1/false,
24:*3:0/TEXT/inside-trigger,
24:*4:4/TEXT/inside-trigger,
29:u5:0/TEXT/inside-trigger/_x-1,
25:*6:-3/TEXT/inside-trigger,
24:*7:1/TEXT/inside-trigger,
24:*8:0/TEXT/inside-trigger,
25:*11:1/inside-trigger/TEXT,
27:u12:0/TEXT/inside-trigger/1,
27:u13:3/TEXT/inside-trigger/1,
25:u14:3/TEXT/inside-trigger,
32:u1:inside-trigger/TEXT/date/null,
28:*2:TEXT/inside-trigger/false,
29:u5:0/date/TEXT/inside-trigger,
22:u1:null/null/TEXT/null,
22:u1:null/TEXT/null/null,
19:u5:0/null/TEXT/null,
14:*7:1/null/TEXT,
15:*11:1/TEXT/null,
17:u12:0/null/TEXT/1,
17:u13:3/null/TEXT/1,
22:u1:TEXT/date/TEXT/null,
17:u12:1/null/TEXT/1,
14:*3:1/TEXT/null,
17:u12:1/TEXT/_x-1/0,
19:u5:1/date/TEXT/TEXT,
17:u12:1/date/TEXT/0,
17:u12:1/null/date/0,
17:u13:2/null/date/0,
17:u12:1/null/null/0,
17:u13:2/null/null/0,
17:u12:1/TEXT/null/0,
17:u13:2/TEXT/null/0,
32:u1:_x-2/_x-1/TEXT/inside-trigger,
17:u12:2/TEXT/_x-1/0,
32:u1:_x-1/TEXT/inside-trigger/date,
24:*3:0/inside-trigger/TEXT,
24:*4:2/inside-trigger/TEXT,
29:u5:0/inside-trigger/TEXT/_x-1,
25:*6:-3/inside-trigger/TEXT,
24:*7:0/inside-trigger/TEXT,
24:*8:0/inside-trigger/TEXT,
25:*11:3/TEXT/inside-trigger,
27:u12:0/inside-trigger/TEXT/0,
27:u13:2/inside-trigger/TEXT/0,
25:u14:3/inside-trigger/TEXT,
32:u1:TEXT/inside-trigger/date/null,
28:*2:inside-trigger/TEXT/false,
24:*3:0/date/inside-trigger,
24:*4:2/date/inside-trigger,
29:u5:1/date/inside-trigger/TEXT,
25:*6:-3/date/inside-trigger,
24:*7:0/date/inside-trigger,
24:*8:0/date/inside-trigger,
25:*11:3/inside-trigger/date,
27:u12:0/date/inside-trigger/0,
27:u13:2/date/inside-trigger/0,
25:u14:3/date/inside-trigger,
32:u1:inside-trigger/date/null/null,
28:*2:date/inside-trigger/false,
29:u5:0/null/date/inside-trigger,
17:u12:0/null/date/0,
22:u1:null/null/null/date,
19:u5:1/date/null/null,
17:u12:0/date/null/0,
19:u5:1/date/date/null,
19:u5:1/date/date/date,
17:u12:1/date/date/1,
14:*7:2/null/date,
6:*9:2/2,
17:u12:1/null/date/2,
17:u13:3/null/date/2,
17:u12:1/null/null/2,
17:u12:1/TEXT/null/2,
17:u12:1/date/null/2,
17:u12:1/date/date/2,
17:u13:3/date/date/2,
6:*9:3/2,
17:u12:1/null/date/3,
17:u13:3/null/date/3,
17:u12:1/null/null/3,
17:u13:3/null/null/3,
17:u12:1/TEXT/null/3,
17:u13:3/TEXT/null/3,
17:u12:1/TEXT/TEXT/3,
17:u12:1/null/_x-1/3,
17:u13:3/null/_x-1/3,
17:u12:1/date/null/3,
17:u13:3/date/null/3,
17:u12:1/date/date/3,
17:u13:3/date/date/3,
17:u12:0/TEXT/_x-1/3,
17:u12:0/TEXT/TEXT/3,
22:u1:TEXT/TEXT/date/date,
17:u12:0/date/TEXT/3,
22:u1:TEXT/date/date/date,
19:u5:1/date/date/TEXT,
17:u12:0/date/date/3,
17:u12:0/null/date/3,
17:u12:0/null/null/3,
17:u12:0/TEXT/null/3,
17:u12:1/TEXT/_x-1/3,
17:u12:1/date/TEXT/3,
17:u12:1/TEXT/date/3,
6:*9:0/3,
11:*10:0/false,
15:*11:0/_x-1/TEXT,
15:*11:0/TEXT/TEXT,
15:*11:0/TEXT/date,
15:*11:0/date/TEXT,
6:*9:0/4,
17:u12:2/TEXT/TEXT/0,
22:u1:_x-2/_x-1/TEXT/null,
15:u14:1/TEXT/_x-1,
22:u1:_x-1/TEXT/null/date,
19:u5:0/null/TEXT/_x-1,
17:u13:3/null/TEXT/0,
15:u14:1/null/TEXT,
22:u1:TEXT/null/date/TEXT,
19:u5:0/date/null/TEXT,
15:u14:1/TEXT/date,
22:u1:TEXT/date/date/TEXT,
14:*3:2/date/date,
19:u5:0/date/date/TEXT,
15:u14:2/date/date,
24:*3:2/inside-trigger/_x-1,
24:*4:2/inside-trigger/_x-1,
24:*3:2/TEXT/inside-trigger,
24:*4:2/TEXT/inside-trigger,
32:u1:inside-trigger/TEXT/date/TEXT,
14:*3:2/TEXT/null,
17:u12:1/TEXT/_x-1/1,
14:*6:3/date/null,
16:u14:-3/date/null,
16:u14:-3/date/date,
17:u12:1/date/date/0,
6:*9:2/1,
17:u12:3/null/date/2,
25:u1:null/null/TEXT/trigger,
25:u1:null/TEXT/trigger/_x+1,
17:*3:0/trigger/TEXT,
17:*4:1/trigger/TEXT,
22:u5:0/trigger/TEXT/null,
17:*6:3/trigger/TEXT,
17:*7:2/trigger/TEXT,
17:*8:0/trigger/TEXT,
18:*11:3/TEXT/trigger,
20:u12:0/trigger/TEXT/2,
20:u13:3/trigger/TEXT/2,
18:u14:1/trigger/TEXT,
14:*3:3/TEXT/_x-1,
17:u12:0/TEXT/_x-1/2,
17:u12:0/TEXT/TEXT/2,
17:u12:0/date/TEXT/2,
14:*3:3/date/date,
17:u12:0/date/date/2,
17:u12:0/TEXT/date/2,
24:*3:3/inside-trigger/TEXT,
24:*4:1/inside-trigger/TEXT,
24:*6:3/inside-trigger/TEXT,
24:*7:2/inside-trigger/TEXT,
27:u12:0/inside-trigger/TEXT/2,
27:u13:3/inside-trigger/TEXT/2,
25:u14:2/inside-trigger/TEXT,
32:u1:TEXT/inside-trigger/date/TEXT,
24:*3:3/date/inside-trigger,
24:*4:1/date/inside-trigger,
29:u5:0/date/inside-trigger/TEXT,
24:*6:3/date/inside-trigger,
24:*7:2/date/inside-trigger,
27:u12:0/date/inside-trigger/2,
27:u13:3/date/inside-trigger/2,
25:u14:2/date/inside-trigger,
32:u1:inside-trigger/date/TEXT/TEXT,
29:u5:0/TEXT/date/inside-trigger,
6:*9:2/3,
17:u12:2/TEXT/_x-1/2,
17:u12:2/TEXT/TEXT/2,
17:u12:2/date/TEXT/2,
17:u12:2/TEXT/date/2,
6:*9:3/3,
17:u12:0/TEXT/date/3,
17:u12:2/TEXT/_x-1/3,
17:u12:2/TEXT/TEXT/3,
17:u12:2/date/TEXT/3,
17:u12:2/TEXT/date/3,
22:u1:date/TEXT/null/TEXT,
14:*4:3/null/TEXT,
14:*6:3/null/TEXT,
14:*7:3/null/TEXT,
17:u12:2/null/TEXT/3,
17:u13:3/null/TEXT/3,
22:u1:TEXT/null/TEXT/_x+1,
19:u5:0/TEXT/null/TEXT,
17:u12:2/TEXT/null/3,
24:*3:1/inside-trigger/_x-1,
24:*7:3/inside-trigger/_x-1,
25:*11:3/_x-1/inside-trigger,
27:u12:0/inside-trigger/_x-1/3,
27:u13:3/inside-trigger/_x-1/3,
24:*3:1/TEXT/inside-trigger,
24:*7:3/TEXT/inside-trigger,
25:*11:3/inside-trigger/TEXT,
27:u12:0/TEXT/inside-trigger/3,
27:u13:3/TEXT/inside-trigger/3,
14:*6:1/TEXT/_x-1,
14:*6:1/TEXT/TEXT,
14:*6:1/date/TEXT,
15:u14:1/date/TEXT,
14:*6:1/date/date,
14:*6:1/null/date,
14:*6:1/null/null,
17:u13:2/TEXT/_x-1/1,
17:u13:2/TEXT/TEXT/1,
17:u13:2/date/TEXT/1,
17:u13:2/TEXT/date/1,
22:u1:TEXT/null/date/date,
32:u1:TEXT/date/TEXT/inside-trigger,
32:u1:date/TEXT/inside-trigger/_x+1,
29:u5:0/inside-trigger/TEXT/date,
24:*7:1/inside-trigger/TEXT,
27:u12:0/inside-trigger/TEXT/1,
27:u13:3/inside-trigger/TEXT/1,
22:*3:3/post-trigger/date,
22:*4:3/post-trigger/date,
23:*6:-3/post-trigger/date,
23:*11:3/date/post-trigger,
22:*3:3/TEXT/post-trigger,
22:*4:3/TEXT/post-trigger,
23:*6:-3/TEXT/post-trigger,
23:*11:3/post-trigger/TEXT,
17:u13:0/TEXT/_x-1/2,
17:u13:0/TEXT/TEXT/2,
17:u13:0/date/TEXT/2,
17:u13:0/TEXT/null/3,
17:u13:0/TEXT/TEXT/3,
17:u12:2/null/_x-1/3,
17:u13:1/date/TEXT/3,
17:u13:1/TEXT/date/3,
15:u14:2/null/_x-1,
15:u14:2/null/null,
15:u14:2/date/null,
15:u14:2/null/date,
15:u14:2/TEXT/null,
22:u1:date/date/null/TEXT,
22:u1:date/null/TEXT/TEXT,
19:u5:0/TEXT/null/date,
17:u12:1/null/TEXT/2,
25:u1:_x-2/_x-1/trigger/null,
17:*3:0/trigger/_x-1,
17:*4:1/trigger/_x-1,
22:u5:0/trigger/_x-1/_x-2,
17:*6:2/trigger/_x-1,
17:*7:0/trigger/_x-1,
17:*8:0/trigger/_x-1,
18:*11:3/_x-1/trigger,
20:u12:0/trigger/_x-1/0,
20:u13:1/trigger/_x-1/0,
18:u14:3/trigger/_x-1,
25:u1:_x-1/trigger/null/date,
21:*2:trigger/_x-1/false,
17:*3:0/null/trigger,
17:*4:1/null/trigger,
22:u5:0/null/trigger/_x-1,
17:*6:2/null/trigger,
17:*7:0/null/trigger,
17:*8:0/null/trigger,
18:*11:3/trigger/null,
20:u12:0/null/trigger/0,
20:u13:1/null/trigger/0,
18:u14:3/null/trigger,
25:u1:trigger/null/date/date,
21:*2:null/trigger/false,
22:u5:0/date/null/trigger,
17:u13:1/date/null/0,
17:u13:1/date/date/0,
14:*6:1/null/_x-1,
17:u13:1/null/_x-1/1,
14:*6:1/TEXT/null,
14:*6:1/TEXT/date,
17:u13:1/TEXT/date/1,
22:u1:TEXT/date/date/null,
17:u13:2/date/date/1,
17:u13:2/null/date/2,
17:u13:2/null/null/2,
17:u13:2/TEXT/null/2,
17:u13:2/TEXT/TEXT/2,
17:u12:0/null/_x-1/2,
17:u13:2/null/_x-1/2,
17:u12:0/null/null/2,
17:u12:0/date/null/2,
17:u13:2/date/null/2,
17:u13:2/TEXT/date/2,
17:u12:2/null/TEXT/2,
17:u12:2/date/null/2,
17:u12:2/date/date/2,
22:u1:date/date/date/TEXT,
16:u14:-1/TEXT/_x-1,
12:u15:-1/false,
16:u14:-1/TEXT/TEXT,
16:u14:-1/date/TEXT,
16:u14:-1/TEXT/date,
17:u12:3/null/TEXT/0,
16:u14:-1/null/TEXT,
22:u1:TEXT/null/null/TEXT,
16:u14:-1/null/null,
16:u14:-1/TEXT/null,
25:u1:_x-2/_x-1/TEXT/trigger,
25:u1:_x-1/TEXT/trigger/date,
22:u5:0/trigger/TEXT/_x-1,
17:*6:2/trigger/TEXT,
17:*7:0/trigger/TEXT,
18:*11:1/TEXT/trigger,
20:u12:0/trigger/TEXT/0,
20:u13:3/trigger/TEXT/0,
25:u1:TEXT/trigger/date/date,
21:*2:trigger/TEXT/false,
22:u5:0/date/trigger/TEXT,
17:*6:2/date/trigger,
24:*4:4/inside-trigger/TEXT,
25:*11:1/TEXT/inside-trigger,
24:*4:4/date/inside-trigger,
24:*7:1/date/inside-trigger,
25:*11:1/inside-trigger/date,
27:u12:0/date/inside-trigger/1,
27:u13:3/date/inside-trigger/1,
17:u12:3/null/TEXT/1,
24:*6:2/inside-trigger/TEXT,
24:*6:2/date/inside-trigger,
14:*6:1/date/null,
32:u1:TEXT/inside-trigger/date/date,
32:u1:inside-trigger/date/date/TEXT,
29:u5:0/date/date/inside-trigger,
22:u1:null/TEXT/date/null,
17:u12:1/null/TEXT/3,
17:u13:1/null/TEXT/3,
15:*11:0/date/null,
16:u14:-1/null/date,
15:*11:0/null/null,
15:*11:0/null/TEXT,
15:u14:0/TEXT/_x-1,
15:u14:0/TEXT/TEXT,
15:u14:0/date/TEXT,
15:u14:0/null/date,
30:u1:date/null/null/post-trigger,
30:u1:null/null/post-trigger/TEXT,
22:*3:0/post-trigger/null,
22:*4:1/post-trigger/null,
27:u5:0/post-trigger/null/null,
22:*6:1/post-trigger/null,
22:*7:0/post-trigger/null,
22:*8:0/post-trigger/null,
23:*11:0/null/post-trigger,
25:u12:0/post-trigger/null/0,
25:u13:3/post-trigger/null/0,
23:u14:1/post-trigger/null,
30:u1:null/post-trigger/TEXT/_x+1,
26:*2:post-trigger/null/false,
22:*3:0/TEXT/post-trigger,
22:*4:1/TEXT/post-trigger,
27:u5:0/TEXT/post-trigger/null,
22:*6:1/TEXT/post-trigger,
22:*7:0/TEXT/post-trigger,
23:*11:0/post-trigger/TEXT,
25:u12:0/TEXT/post-trigger/0,
25:u13:3/TEXT/post-trigger/0,
23:u14:1/TEXT/post-trigger,
14:*6:1/null/TEXT,
15:*11:0/TEXT/null,
15:*11:0/null/date,
24:*3:2/inside-trigger/TEXT,
25:*11:0/TEXT/inside-trigger,
27:u13:3/inside-trigger/TEXT/0,
24:*3:2/date/inside-trigger,
25:*11:0/inside-trigger/date,
27:u13:3/date/inside-trigger/0,
14:*4:2/null/TEXT,
17:u12:1/null/TEXT/0,
25:u1:_x-2/_x-1/trigger/TEXT,
20:u13:3/trigger/_x-1/0,
18:u14:2/trigger/_x-1,
25:u1:_x-1/trigger/TEXT/date,
17:*3:0/TEXT/trigger,
17:*4:1/TEXT/trigger,
22:u5:0/TEXT/trigger/_x-1,
17:*6:2/TEXT/trigger,
17:*7:0/TEXT/trigger,
17:*8:0/TEXT/trigger,
18:*11:3/trigger/TEXT,
20:u12:0/TEXT/trigger/0,
20:u13:3/TEXT/trigger/0,
18:u14:2/TEXT/trigger,
25:u1:trigger/TEXT/date/date,
21:*2:TEXT/trigger/false,
22:u5:0/date/TEXT/trigger,
25:u1:date/date/TEXT/trigger,
25:u1:date/TEXT/trigger/_x+1,
22:u5:0/trigger/TEXT/date,
18:u14:2/trigger/TEXT,
17:*7:1/trigger/_x-1,
20:u12:0/trigger/_x-1/1,
20:u13:3/trigger/_x-1/1,
17:*7:1/TEXT/trigger,
20:u12:0/TEXT/trigger/1,
20:u13:3/TEXT/trigger/1,
17:u12:0/date/date/1,
17:*7:1/trigger/TEXT,
20:u12:0/trigger/TEXT/1,
20:u13:3/trigger/TEXT/1,
30:u1:_x-2/_x-1/null/anti-trigger,
30:u1:_x-1/null/anti-trigger/date,
22:*3:0/anti-trigger/null,
22:*4:1/anti-trigger/null,
27:u5:0/anti-trigger/null/_x-1,
22:*6:1/anti-trigger/null,
22:*7:2/anti-trigger/null,
22:*8:0/anti-trigger/null,
23:*11:3/null/anti-trigger,
25:u12:0/anti-trigger/null/2,
25:u13:0/anti-trigger/null/2,
23:u14:2/anti-trigger/null,
30:u1:null/anti-trigger/date/null,
26:*2:anti-trigger/null/false,
22:*3:0/date/anti-trigger,
22:*4:1/date/anti-trigger,
27:u5:0/date/anti-trigger/null,
22:*6:1/date/anti-trigger,
22:*7:2/date/anti-trigger,
22:*8:0/date/anti-trigger,
23:*11:3/anti-trigger/date,
25:u12:0/date/anti-trigger/2,
25:u13:0/date/anti-trigger/2,
23:u14:2/date/anti-trigger,
30:u1:anti-trigger/date/null/null,
26:*2:date/anti-trigger/false,
27:u5:0/null/date/anti-trigger,
17:u12:0/null/date/2,
17:u13:0/null/date/2,
17:u12:0/TEXT/null/2,
17:u13:0/TEXT/null/2,
17:u12:0/null/TEXT/2,
17:u13:0/null/TEXT/2,
15:u14:2/null/TEXT,
17:u12:3/TEXT/_x-1/2,
6:*9:3/1,
22:u1:null/TEXT/date/date,
14:*4:3/date/date,
17:u12:2/date/date/3,
14:*4:3/null/date,
17:u12:2/null/date/3,
17:u12:2/null/null/3,
17:u12:0/null/TEXT/3,
17:u12:3/null/TEXT/3,
22:u1:null/TEXT/null/TEXT,
22:u1:TEXT/null/TEXT/date,
32:u1:null/null/null/inside-trigger,
32:u1:null/null/inside-trigger/TEXT,
24:*3:0/inside-trigger/null,
24:*4:1/inside-trigger/null,
29:u5:0/inside-trigger/null/null,
24:*6:3/inside-trigger/null,
24:*7:0/inside-trigger/null,
24:*8:0/inside-trigger/null,
25:*11:2/null/inside-trigger,
27:u12:0/inside-trigger/null/0,
27:u13:3/inside-trigger/null/0,
26:u14:-3/inside-trigger/null,
32:u1:null/inside-trigger/TEXT/_x+1,
28:*2:inside-trigger/null/false,
24:*4:1/TEXT/inside-trigger,
29:u5:0/TEXT/inside-trigger/null,
24:*6:3/TEXT/inside-trigger,
24:*7:0/TEXT/inside-trigger,
25:*11:2/inside-trigger/TEXT,
27:u12:0/TEXT/inside-trigger/0,
27:u13:3/TEXT/inside-trigger/0,
26:u14:-3/TEXT/inside-trigger,
10:*10:2/true,
10:u15:1/true,
22:u1:date/date/TEXT/null,
14:*8:1/TEXT/date,
14:*8:1/null/TEXT,
30:u1:TEXT/null/null/post-trigger,
30:u1:null/null/post-trigger/_x+1,
22:*7:1/post-trigger/null,
22:*8:1/post-trigger/null,
23:*11:2/null/post-trigger,
25:u12:0/post-trigger/null/1,
25:u13:3/post-trigger/null/1,
14:*8:1/TEXT/_x-1,
14:*8:1/date/TEXT,
24:*4:3/inside-trigger/TEXT,
24:*8:1/inside-trigger/TEXT,
25:*11:2/TEXT/inside-trigger,
17:u12:2/date/TEXT/0,
16:u14:-2/date/TEXT,
17:u12:2/TEXT/date/0,
16:u14:-2/TEXT/date,
17:u12:2/null/TEXT/0,
16:u14:-2/null/TEXT,
16:u14:-2/null/null,
17:u12:2/TEXT/null/0,
32:u1:_x-2/_x-1/inside-trigger/date,
42:u1:_x-1/inside-trigger/date/inside-trigger,
29:u5:0/date/inside-trigger/_x-1,
42:u1:inside-trigger/date/inside-trigger/TEXT,
24:*3:2/inside-trigger/date,
24:*4:2/inside-trigger/date,
39:u5:0/inside-trigger/date/inside-trigger,
25:*6:-3/inside-trigger/date,
24:*7:1/inside-trigger/date,
24:*8:0/inside-trigger/date,
25:*11:3/date/inside-trigger,
27:u12:0/inside-trigger/date/1,
27:u13:3/inside-trigger/date/1,
25:u14:3/inside-trigger/date,
32:u1:date/inside-trigger/TEXT/_x+1,
28:*2:inside-trigger/date/false,
29:u5:0/TEXT/inside-trigger/date,
42:u1:TEXT/inside-trigger/date/inside-trigger,
24:*4:3/date/inside-trigger,
24:*4:3/inside-trigger/date,
24:*7:2/inside-trigger/date,
27:u12:0/inside-trigger/date/2,
27:u13:3/inside-trigger/date/2,
24:*4:3/TEXT/inside-trigger,
24:*7:2/TEXT/inside-trigger,
27:u12:0/TEXT/inside-trigger/2,
27:u13:3/TEXT/inside-trigger/2,
16:u14:-1/null/_x-1,
16:u14:-1/date/null,
16:u14:-1/date/date,
15:u14:0/TEXT/null,
17:u12:1/null/_x-1/2,
17:u12:2/null/null/2,
17:u12:2/TEXT/null/2,
22:u1:null/date/null/null,
22:u1:_x-2/_x-1/TEXT/date,
22:u1:_x-1/TEXT/date/TEXT,
19:u5:0/date/TEXT/_x-1,
17:*2:null/TEXT/true,
17:u12:0/date/null/3,
17:*2:TEXT/null/true,
14:*8:2/date/TEXT,
17:*2:date/TEXT/true,
14:*8:3/null/_x-1,
22:u1:null/date/date/null,
22:u1:date/null/null/date,
22:u1:null/date/null/TEXT,
17:u12:0/null/_x-1/3,
17:*2:TEXT/TEXT/true,
10:*10:1/true,
22:u1:date/TEXT/TEXT/date,
24:*8:1/date/inside-trigger,
15:u14:0/TEXT/date,
17:u13:1/TEXT/_x-1/3,
17:u13:2/TEXT/null/3,
17:u13:2/date/TEXT/3,
17:u13:2/TEXT/date/3,
17:u13:2/TEXT/TEXT/3,
30:u1:null/null/null/anti-trigger,
30:u1:null/null/anti-trigger/TEXT,
27:u5:0/anti-trigger/null/null,
22:*7:1/anti-trigger/null,
23:*11:1/null/anti-trigger,
25:u12:0/anti-trigger/null/1,
25:u13:0/anti-trigger/null/1,
23:u14:1/anti-trigger/null,
30:u1:null/anti-trigger/TEXT/_x+1,
22:*3:0/TEXT/anti-trigger,
22:*4:1/TEXT/anti-trigger,
27:u5:0/TEXT/anti-trigger/null,
22:*6:1/TEXT/anti-trigger,
22:*7:1/TEXT/anti-trigger,
22:*8:0/TEXT/anti-trigger,
23:*11:1/anti-trigger/TEXT,
25:u12:0/TEXT/anti-trigger/1,
25:u13:0/TEXT/anti-trigger/1,
23:u14:1/TEXT/anti-trigger,
17:u13:0/TEXT/_x-1/1,
17:u13:0/date/TEXT/1,
17:u12:1/null/_x-1/0,
17:u12:1/date/null/0,
24:*4:1/inside-trigger/_x-1,
17:u13:0/date/date/1,
17:u12:2/null/_x-1/2,
17:u13:0/null/TEXT/3,
17:u13:0/null/_x-1/3,
17:u13:0/date/null/3,
17:u13:0/date/date/3,
17:u12:2/date/null/3,
17:u13:2/TEXT/_x-1/3,
24:*4:4/inside-trigger/null,
25:*6:-3/inside-trigger/null,
24:*7:3/inside-trigger/null,
25:*11:3/null/inside-trigger,
27:u12:0/inside-trigger/null/3,
27:u13:0/inside-trigger/null/3,
25:u14:3/inside-trigger/null,
27:u13:0/TEXT/inside-trigger/3,
17:u13:0/TEXT/_x-1/3,
17:u13:0/date/TEXT/3,
25:*11:2/inside-trigger/date,
24:*3:1/inside-trigger/TEXT,
24:*3:1/date/inside-trigger,
14:*3:1/date/date,
17:u12:2/null/date/2,
32:u1:inside-trigger/date/TEXT/null,
32:u1:inside-trigger/date/date/null,
22:u1:TEXT/null/date/null,
30:u1:_x-2/_x-1/anti-trigger/null,
22:*3:0/anti-trigger/_x-1,
22:*4:4/anti-trigger/_x-1,
27:u5:0/anti-trigger/_x-1/_x-2,
23:*6:-3/anti-trigger/_x-1,
22:*7:2/anti-trigger/_x-1,
22:*8:0/anti-trigger/_x-1,
23:*11:2/_x-1/anti-trigger,
25:u12:3/anti-trigger/_x-1/2,
25:u13:0/anti-trigger/_x-1/2,
23:u14:3/anti-trigger/_x-1,
30:u1:_x-1/anti-trigger/null/date,
26:*2:anti-trigger/_x-1/false,
22:*3:0/null/anti-trigger,
22:*4:4/null/anti-trigger,
27:u5:0/null/anti-trigger/_x-1,
23:*6:-3/null/anti-trigger,
22:*7:2/null/anti-trigger,
22:*8:0/null/anti-trigger,
23:*11:2/anti-trigger/null,
25:u12:3/null/anti-trigger/2,
25:u13:0/null/anti-trigger/2,
23:u14:3/null/anti-trigger,
30:u1:anti-trigger/null/date/null,
26:*2:null/anti-trigger/false,
27:u5:0/date/null/anti-trigger,
30:u1:null/null/TEXT/anti-trigger,
30:u1:null/TEXT/anti-trigger/_x+1,
22:*3:0/anti-trigger/TEXT,
22:*4:4/anti-trigger/TEXT,
27:u5:0/anti-trigger/TEXT/null,
23:*6:-3/anti-trigger/TEXT,
22:*7:2/anti-trigger/TEXT,
22:*8:0/anti-trigger/TEXT,
23:*11:2/TEXT/anti-trigger,
25:u12:3/anti-trigger/TEXT/2,
25:u13:0/anti-trigger/TEXT/2,
23:u14:3/anti-trigger/TEXT,
22:u1:date/date/TEXT/date,
22:u1:date/TEXT/date/date,
25:u1:null/null/null/trigger,
25:u1:null/null/trigger/TEXT,
17:*4:2/trigger/null,
22:u5:0/trigger/null/null,
17:*6:2/trigger/null,
17:*7:1/trigger/null,
20:u12:0/trigger/null/1,
20:u13:3/trigger/null/1,
19:u14:-3/trigger/null,
25:u1:null/trigger/TEXT/_x+1,
17:*4:2/TEXT/trigger,
22:u5:0/TEXT/trigger/null,
18:*11:1/trigger/TEXT,
19:u14:-3/TEXT/trigger,
17:*3:2/trigger/_x-1,
17:*4:3/trigger/_x-1,
18:*6:-3/trigger/_x-1,
18:*11:1/_x-1/trigger,
19:u14:-3/trigger/_x-1,
17:*3:2/TEXT/trigger,
17:*4:3/TEXT/trigger,
18:*6:-3/TEXT/trigger,
25:u1:trigger/TEXT/date/TEXT,
17:u12:1/null/date/1,
30:u1:TEXT/date/TEXT/post-trigger,
30:u1:date/TEXT/post-trigger/_x+1,
22:*3:2/post-trigger/TEXT,
22:*4:4/post-trigger/TEXT,
27:u5:0/post-trigger/TEXT/date,
23:*6:-3/post-trigger/TEXT,
22:*7:1/post-trigger/TEXT,
23:*11:1/TEXT/post-trigger,
25:u12:0/post-trigger/TEXT/1,
25:u13:3/post-trigger/TEXT/1,
23:u14:3/post-trigger/TEXT,
24:*7:3/inside-trigger/TEXT,
27:u12:0/inside-trigger/TEXT/3,
27:u13:3/inside-trigger/TEXT/3,
17:*3:1/trigger/null,
17:*4:3/trigger/null,
18:*6:-3/trigger/null,
17:*7:3/trigger/null,
18:*11:3/null/trigger,
20:u12:0/trigger/null/3,
20:u13:3/trigger/null/3,
18:u14:3/trigger/null,
17:*3:1/date/trigger,
17:*4:3/date/trigger,
18:*6:-3/date/trigger,
17:*7:3/date/trigger,
18:*11:3/trigger/date,
20:u12:0/date/trigger/3,
20:u13:3/date/trigger/3,
18:u14:3/date/trigger,
19:u5:2/date/null/null,
19:u5:2/date/date/null,
19:u5:2/date/date/date,
19:u5:2/date/TEXT/TEXT,
30:u1:null/null/TEXT/post-trigger,
30:u1:null/TEXT/post-trigger/_x+1,
27:u5:0/post-trigger/TEXT/null,
22:*7:3/post-trigger/TEXT,
23:*11:3/TEXT/post-trigger,
25:u12:0/post-trigger/TEXT/3,
25:u13:3/post-trigger/TEXT/3,
17:u12:2/null/_x-1/1,
17:u12:2/date/null/1,
22:u1:date/null/TEXT/null,
17:u12:2/null/TEXT/1,
17:u13:1/null/TEXT/1,
25:*11:2/date/inside-trigger,
17:u13:0/TEXT/date/2,
17:u12:2/date/date/1,
24:*7:2/inside-trigger/_x-1,
27:u12:0/inside-trigger/_x-1/2,
27:u13:3/inside-trigger/_x-1/2,
25:u14:2/inside-trigger/_x-1,
32:u1:_x-1/inside-trigger/date/TEXT,
24:*7:3/date/inside-trigger,
27:u12:0/date/inside-trigger/3,
27:u13:3/date/inside-trigger/3,
24:*4:1/inside-trigger/date,
24:*6:1/inside-trigger/date,
25:u14:2/inside-trigger/date,
24:*6:1/TEXT/inside-trigger,
25:u14:2/TEXT/inside-trigger,
32:u1:TEXT/TEXT/date/inside-trigger,
32:u1:TEXT/date/inside-trigger/TEXT,
24:*3:1/inside-trigger/date,
29:u5:0/inside-trigger/date/TEXT,
24:*7:0/inside-trigger/date,
25:*11:1/date/inside-trigger,
27:u12:0/inside-trigger/date/0,
27:u13:3/inside-trigger/date/0,
22:u1:TEXT/null/null/date,
16:u14:-2/null/_x-1,
16:u14:-2/date/null,
16:u14:-2/null/date,
29:u5:2/date/inside-trigger/TEXT,
22:u1:null/TEXT/TEXT/date,
14:*8:2/TEXT/date,
14:*8:3/null/TEXT,
19:u5:2/date/date/TEXT,
19:u5:3/date/null/null,
19:u5:3/date/date/null,
19:u5:3/date/date/date,
16:u14:-2/TEXT/_x-1,
15:u14:0/date/null,
24:*3:3/inside-trigger/_x-1,
25:*11:2/_x-1/inside-trigger,
24:*3:3/TEXT/inside-trigger,
17:u13:1/date/date/1,
17:u13:1/null/null/2,
17:u13:1/date/null/2,
17:u13:1/null/date/2,
17:u13:1/TEXT/null/2,
17:u13:1/TEXT/TEXT/2,
17:u13:1/null/_x-1/2,
17:u13:1/TEXT/_x-1/2,
17:u13:1/date/TEXT/2,
17:u13:1/TEXT/date/2,
17:u13:1/null/TEXT/2,
17:u13:2/TEXT/_x-1/2,
17:u13:2/date/TEXT/2,
17:u13:2/null/TEXT/2,
30:u1:null/TEXT/date/post-trigger,
22:*3:0/post-trigger/date,
22:*4:4/post-trigger/date,
22:*7:3/post-trigger/date,
25:u12:0/post-trigger/date/3,
25:u13:3/post-trigger/date/3,
22:*4:4/TEXT/post-trigger,
22:*7:3/TEXT/post-trigger,
25:u12:0/TEXT/post-trigger/3,
25:u13:3/TEXT/post-trigger/3,
25:u1:null/null/trigger/null,
17:*6:1/trigger/null,
17:*8:1/trigger/null,
25:u1:null/trigger/null/null,
22:u5:0/null/trigger/null,
17:*6:1/null/trigger,
17:*7:1/null/trigger,
17:*8:1/null/trigger,
20:u12:0/null/trigger/1,
20:u13:3/null/trigger/1,
18:u14:1/null/trigger,
25:u1:trigger/null/null/null,
22:u5:0/null/null/trigger,
27:u13:1/inside-trigger/TEXT/3,
27:u13:1/date/inside-trigger/3,
18:*11:2/null/trigger,
19:u14:-2/trigger/null,
22:u5:1/date/trigger/null,
18:*11:2/trigger/date,
19:u14:-2/date/trigger,
22:u5:1/date/date/trigger,
16:u14:-2/date/date,
25:u1:date/null/null/trigger,
25:u1:null/null/trigger/date,
19:u14:-1/trigger/null,
17:*7:1/date/trigger,
20:u12:0/date/trigger/1,
20:u13:3/date/trigger/1,
19:u14:-1/date/trigger,
19:u5:2/date/TEXT/_x-1,
19:u5:3/date/TEXT/TEXT,
22:u1:date/null/TEXT/date,
19:u5:2/date/TEXT/null,
19:u5:1/date/TEXT/null,
23:*11:3/null/post-trigger,
24:*8:1/inside-trigger/date,
24:*8:1/TEXT/inside-trigger,
22:*8:1/post-trigger/date,
25:u13:1/post-trigger/date/1,
22:*8:1/TEXT/post-trigger,
25:u13:1/TEXT/post-trigger/1,
17:u13:2/null/_x-1/1,
17:u13:2/null/null/1,
17:u13:2/date/null/1,
30:u1:_x-2/_x-1/TEXT/anti-trigger,
30:u1:_x-1/TEXT/anti-trigger/date,
22:*4:1/anti-trigger/TEXT,
27:u5:0/anti-trigger/TEXT/_x-1,
22:*7:0/anti-trigger/TEXT,
23:*11:3/TEXT/anti-trigger,
25:u12:1/anti-trigger/TEXT/0,
25:u13:0/anti-trigger/TEXT/0,
30:u1:TEXT/anti-trigger/date/TEXT,
26:*2:anti-trigger/TEXT/false,
27:u5:0/date/anti-trigger/TEXT,
23:*6:-3/date/anti-trigger,
22:*7:0/date/anti-trigger,
25:u12:1/date/anti-trigger/0,
25:u13:0/date/anti-trigger/0,
23:u14:3/date/anti-trigger,
38:u1:anti-trigger/date/TEXT/anti-trigger,
27:u5:0/TEXT/date/anti-trigger,
17:u13:0/TEXT/date/0,
30:u1:date/TEXT/anti-trigger/_x+1,
27:u5:0/anti-trigger/TEXT/date,
30:u1:_x-2/_x-1/post-trigger/TEXT,
22:*3:0/post-trigger/_x-1,
22:*4:1/post-trigger/_x-1,
27:u5:0/post-trigger/_x-1/_x-2,
23:*6:-3/post-trigger/_x-1,
22:*7:0/post-trigger/_x-1,
22:*8:0/post-trigger/_x-1,
23:*11:3/_x-1/post-trigger,
25:u12:0/post-trigger/_x-1/0,
25:u13:1/post-trigger/_x-1/0,
23:u14:3/post-trigger/_x-1,
30:u1:_x-1/post-trigger/TEXT/date,
26:*2:post-trigger/_x-1/false,
27:u5:0/TEXT/post-trigger/_x-1,
25:u13:2/TEXT/post-trigger/0,
30:u1:post-trigger/TEXT/date/date,
26:*2:TEXT/post-trigger/false,
27:u5:1/date/TEXT/post-trigger,
17:u13:2/date/date/0,
32:u1:date/date/date/inside-trigger,
32:u1:date/date/inside-trigger/date,
24:*3:0/inside-trigger/date,
29:u5:0/inside-trigger/date/date,
27:u13:2/inside-trigger/date/0,
32:u1:date/inside-trigger/date/date,
29:u5:1/date/inside-trigger/date,
29:u5:1/date/date/inside-trigger,
17:u13:2/null/date/1,
17:u13:2/TEXT/null/1,
22:*7:1/post-trigger/_x-1,
25:u12:0/post-trigger/_x-1/1,
25:u13:3/post-trigger/_x-1/1,
29:u5:2/date/inside-trigger/date,
29:u5:2/date/date/inside-trigger,
22:*7:2/post-trigger/_x-1,
25:u12:0/post-trigger/_x-1/2,
25:u13:3/post-trigger/_x-1/2,
22:*7:2/TEXT/post-trigger,
25:u12:0/TEXT/post-trigger/2,
25:u13:3/TEXT/post-trigger/2,
27:u5:2/date/TEXT/post-trigger,
22:*7:3/post-trigger/_x-1,
25:u12:0/post-trigger/_x-1/3,
25:u13:3/post-trigger/_x-1/3,
24:*7:3/inside-trigger/date,
27:u12:0/inside-trigger/date/3,
27:u13:3/inside-trigger/date/3,
27:u5:3/date/TEXT/post-trigger,
19:u5:3/date/date/TEXT,
29:u5:3/date/inside-trigger/date,
29:u5:3/date/date/inside-trigger,
22:*4:2/post-trigger/_x-1,
27:u5:0/date/TEXT/post-trigger,
29:u5:0/date/inside-trigger/date,
22:*4:3/post-trigger/_x-1,
17:u13:2/null/TEXT/3,
17:u13:2/date/null/3,
17:u13:2/null/date/3,
17:u13:2/null/null/3,
22:u1:null/TEXT/null/date,
19:u5:3/date/TEXT/null,
22:u1:TEXT/date/null/TEXT,
22:u1:date/TEXT/null/date,
17:*6:1/date/trigger,
30:u1:null/null/anti-trigger/null,
23:*11:2/null/anti-trigger,
30:u1:null/anti-trigger/null/null,
22:*4:1/null/anti-trigger,
27:u5:0/null/anti-trigger/null,
22:*6:1/null/anti-trigger,
22:*7:1/null/anti-trigger,
25:u12:0/null/anti-trigger/1,
25:u13:0/null/anti-trigger/1,
23:u14:1/null/anti-trigger,
30:u1:anti-trigger/null/null/TEXT,
27:u5:0/null/null/anti-trigger,
17:u13:0/TEXT/null/1,
22:*7:2/post-trigger/date,
23:*11:2/date/post-trigger,
25:u12:0/post-trigger/date/2,
25:u13:3/post-trigger/date/2,
23:*11:2/post-trigger/TEXT,
27:u13:2/inside-trigger/TEXT/2,
17:*6:1/trigger/TEXT,
18:*11:2/TEXT/trigger,
17:*3:2/trigger/TEXT,
18:*6:-3/trigger/TEXT,
20:u13:2/trigger/TEXT/2,
18:u14:3/trigger/TEXT,
25:u1:TEXT/trigger/date/TEXT,
17:*3:2/date/trigger,
17:*7:2/date/trigger,
20:u12:0/date/trigger/2,
20:u13:2/date/trigger/2,
25:u1:trigger/date/TEXT/TEXT,
22:u5:0/TEXT/date/trigger,
17:*4:2/trigger/TEXT,
19:u14:-1/trigger/TEXT,
17:*4:2/date/trigger,
25:u1:trigger/date/date/null,
22:u1:null/null/TEXT/date,
22:u1:_x-1/TEXT/date/null,
20:*2:trigger/null/true,
17:*8:1/date/trigger,
20:*2:date/trigger/true,
25:u1:date/null/TEXT/trigger,
17:*8:1/trigger/TEXT,
42:u1:inside-trigger/date/date/inside-trigger,
32:u1:date/date/inside-trigger/TEXT,
26:u14:-3/inside-trigger/TEXT,
26:u14:-3/date/inside-trigger,
32:u1:inside-trigger/date/date/date,
26:u14:-1/inside-trigger/TEXT,
26:u14:-1/date/inside-trigger,
14:*3:2/date/null,
17:u13:0/TEXT/date/3,
24:*3:3/inside-trigger/date,
32:u1:date/inside-trigger/TEXT/date,
14:*3:1/date/null,
17:u13:0/null/_x-1/0,
17:u13:0/null/null/0,
17:u13:1/null/date/0,
17:u13:2/null/_x-1/0,
17:u13:2/null/TEXT/0,
17:u13:2/date/null/0,
32:u1:_x-2/_x-1/null/inside-trigger,
32:u1:_x-1/null/inside-trigger/date,
24:*3:1/inside-trigger/null,
24:*4:2/inside-trigger/null,
29:u5:0/inside-trigger/null/_x-1,
24:*7:1/inside-trigger/null,
27:u12:0/inside-trigger/null/1,
27:u13:3/inside-trigger/null/1,
32:u1:null/inside-trigger/date/date,
29:u5:0/date/inside-trigger/null,
24:*4:3/inside-trigger/_x-1,
32:u1:inside-trigger/TEXT/date/date,
17:u13:2/null/_x-1/3,
19:u5:1/date/TEXT/date,
22:*3:1/post-trigger/date,
22:*3:1/TEXT/post-trigger,
22:*4:4/anti-trigger/null,
23:*6:-3/anti-trigger/null,
25:u12:1/anti-trigger/null/1,
23:u14:3/anti-trigger/null,
22:*4:4/TEXT/anti-trigger,
23:*6:-3/TEXT/anti-trigger,
25:u12:2/TEXT/anti-trigger/1,
23:u14:3/TEXT/anti-trigger,
17:u13:1/null/_x-1/0,
22:u1:date/null/date/null,
19:u5:1/date/TEXT/_x-1,
17:*3:1/trigger/TEXT,
17:*4:4/trigger/TEXT,
20:*2:trigger/TEXT/true,
17:*4:4/date/trigger,
17:u13:1/date/null/1,
11:u15:-1/true,
17:u13:2/date/date/3,
30:u1:TEXT/TEXT/date/anti-trigger,
30:u1:TEXT/date/anti-trigger/null,
22:*3:0/anti-trigger/date,
22:*4:1/anti-trigger/date,
27:u5:0/anti-trigger/date/TEXT,
22:*6:2/anti-trigger/date,
22:*7:1/anti-trigger/date,
22:*8:0/anti-trigger/date,
23:*11:3/date/anti-trigger,
25:u12:0/anti-trigger/date/1,
25:u13:0/anti-trigger/date/1,
23:u14:1/anti-trigger/date,
30:u1:date/anti-trigger/null/TEXT,
26:*2:anti-trigger/date/false,
27:u5:0/null/anti-trigger/date,
22:*6:2/null/anti-trigger,
23:*11:3/anti-trigger/null,
30:u1:anti-trigger/null/TEXT/_x+1,
27:u5:0/TEXT/null/anti-trigger,
22:u1:TEXT/date/null/date,
17:*6:3/trigger/_x-1,
18:u14:1/trigger/_x-1,
17:*6:3/TEXT/trigger,
18:u14:1/TEXT/trigger,
19:u5:3/date/TEXT/_x-1,
32:u1:date/inside-trigger/date/null,
24:*6:1/date/inside-trigger,
17:*7:2/trigger/null,
20:u12:0/trigger/null/2,
20:u13:3/trigger/null/2,
20:u13:3/date/trigger/2,
17:*4:4/trigger/_x-1,
17:*7:3/trigger/_x-1,
20:u12:0/trigger/_x-1/3,
20:u13:2/trigger/_x-1/3,
17:*4:4/TEXT/trigger,
17:*7:3/TEXT/trigger,
20:u12:0/TEXT/trigger/3,
20:u13:2/TEXT/trigger/3,
18:u14:3/TEXT/trigger,
25:u1:null/null/trigger/_x+1,
17:*4:4/trigger/null,
35:u1:_x-2/_x-1/trigger/inside-trigger,
17:*6:1/trigger/_x-1,
35:u1:_x-1/trigger/inside-trigger/date,
27:*3:0/inside-trigger/trigger,
27:*4:1/inside-trigger/trigger,
32:u5:0/inside-trigger/trigger/_x-1,
27:*6:1/inside-trigger/trigger,
27:*7:1/inside-trigger/trigger,
27:*8:0/inside-trigger/trigger,
28:*11:3/trigger/inside-trigger,
30:u12:0/inside-trigger/trigger/1,
30:u13:3/inside-trigger/trigger/1,
28:u14:2/inside-trigger/trigger,
45:u1:trigger/inside-trigger/date/inside-trigger,
31:*2:inside-trigger/trigger/false,
32:u5:0/date/inside-trigger/trigger,
42:u1:inside-trigger/date/inside-trigger/date,
32:u1:TEXT/date/date/inside-trigger,
22:*3:1/post-trigger/_x-1,
23:*11:1/_x-1/post-trigger,
30:u1:post-trigger/TEXT/date/TEXT,
32:u1:date/null/null/inside-trigger,
25:*11:1/null/inside-trigger,
24:*3:2/inside-trigger/null,
17:*4:3/trigger/TEXT,
11:u15:-3/true,
19:u5:2/date/TEXT/date,
30:u1:TEXT/post-trigger/date/null,
22:*4:4/date/post-trigger,
23:*6:-3/date/post-trigger,
22:*7:3/date/post-trigger,
23:*11:3/post-trigger/date,
25:u12:0/date/post-trigger/3,
25:u13:3/date/post-trigger/3,
30:u1:post-trigger/date/null/null,
27:u5:0/null/date/post-trigger,
24:*4:3/inside-trigger/null,
24:*8:1/inside-trigger/null,
32:u1:date/inside-trigger/date/TEXT,
24:*4:4/inside-trigger/date,
18:*11:2/_x-1/trigger,
19:u14:-1/trigger/_x-1,
27:*6:3/inside-trigger/trigger,
28:*11:2/trigger/inside-trigger,
29:u14:-1/inside-trigger/trigger,
35:u1:trigger/inside-trigger/date/date,
17:*7:2/TEXT/trigger,
18:*11:2/trigger/TEXT,
20:u12:0/TEXT/trigger/2,
20:u13:3/TEXT/trigger/2,
19:u14:-1/TEXT/trigger,
24:*7:2/inside-trigger/null,
27:u12:0/inside-trigger/null/2,
27:u13:3/inside-trigger/null/2,
32:u1:null/inside-trigger/date/TEXT,
17:u13:0/date/null/0,
17:u13:0/date/date/0,
42:u1:inside-trigger/TEXT/date/inside-trigger,
32:u1:TEXT/date/inside-trigger/date,
17:u12:2/null/date/0,
25:u14:2/inside-trigger/null,
32:u1:null/inside-trigger/TEXT/date,
19:u14:-3/trigger/TEXT,
19:u14:-3/date/trigger,
27:u13:3/inside-trigger/null/3,
26:u14:-3/inside-trigger/_x-1,
22:u1:_x-2/_x-1/null/date,
22:u1:_x-1/null/date/TEXT,
19:u5:0/date/null/_x-1,
20:u13:1/trigger/null/0,
20:u13:2/date/trigger/0,
20:u13:2/trigger/null/1,
20:u13:2/date/trigger/1,
18:u14:2/date/trigger,
22:*6:3/post-trigger/date,
22:*6:3/TEXT/post-trigger,
32:u1:null/date/TEXT/inside-trigger,
22:*7:2/post-trigger/TEXT,
25:u12:0/post-trigger/TEXT/2,
25:u13:3/post-trigger/TEXT/2,
22:*7:2/date/post-trigger,
25:u12:0/date/post-trigger/2,
25:u13:3/date/post-trigger/2,
15:u14:0/null/TEXT,
22:*8:1/post-trigger/TEXT,
24:*6:3/inside-trigger/date,
32:u1:null/null/TEXT/inside-trigger,
32:u1:null/TEXT/inside-trigger/_x+1,
29:u5:0/inside-trigger/TEXT/null,
22:*4:3/post-trigger/TEXT,
17:u13:0/null/TEXT/0,
17:u13:0/TEXT/null/0,
17:u13:0/null/date/1,
25:u1:TEXT/date/TEXT/trigger,
17:*7:3/trigger/TEXT,
20:u12:0/trigger/TEXT/3,
20:u13:0/trigger/TEXT/3,
32:u1:date/date/TEXT/inside-trigger,
32:u1:date/TEXT/inside-trigger/date,
25:u14:1/inside-trigger/TEXT,
25:u14:1/date/inside-trigger,
30:u1:null/null/null/post-trigger,
22:*6:3/post-trigger/null,
22:*7:2/post-trigger/null,
25:u12:0/post-trigger/null/2,
25:u13:3/post-trigger/null/2,
23:u14:2/TEXT/post-trigger,
42:u1:null/inside-trigger/date/inside-trigger,
17:u13:2/date/date/2,
19:u5:3/date/null/date,
24:*6:1/inside-trigger/TEXT,
17:u13:1/date/date/2,
14:*8:2/TEXT/_x-1,
22:*7:3/anti-trigger/null,
22:*8:3/anti-trigger/null,
25:u12:3/anti-trigger/null/3,
25:u13:0/anti-trigger/null/3,
22:*7:3/TEXT/anti-trigger,
22:*8:3/TEXT/anti-trigger,
23:*11:3/anti-trigger/TEXT,
25:u12:3/TEXT/anti-trigger/3,
25:u13:0/TEXT/anti-trigger/3,
27:*2:inside-trigger/TEXT/true,
27:*2:date/inside-trigger/true,
24:*8:2/date/inside-trigger,
24:*8:2/inside-trigger/TEXT,
24:*8:3/date/inside-trigger,
24:*8:3/inside-trigger/TEXT,
30:u1:date/date/date/anti-trigger,
30:u1:date/date/anti-trigger/null,
22:*4:4/anti-trigger/date,
27:u5:0/anti-trigger/date/date,
23:*6:-3/anti-trigger/date,
22:*7:3/anti-trigger/date,
22:*8:3/anti-trigger/date,
25:u12:2/anti-trigger/date/3,
25:u13:0/anti-trigger/date/3,
23:u14:2/anti-trigger/date,
30:u1:date/anti-trigger/null/null,
22:*7:3/null/anti-trigger,
22:*8:3/null/anti-trigger,
25:u12:2/null/anti-trigger/3,
25:u13:0/null/anti-trigger/3,
23:u14:2/null/anti-trigger,
30:u1:anti-trigger/null/null/null,
23:u14:3/anti-trigger/date,
25:u12:3/anti-trigger/date/3,
25:u12:3/null/anti-trigger/3,
17:u13:1/TEXT/_x-1/0,
27:u13:1/inside-trigger/TEXT/0,
27:u13:1/date/inside-trigger/0,
20:u13:2/trigger/null/0,
27:u13:2/inside-trigger/TEXT/1,
27:u13:2/date/inside-trigger/1,
25:u1:trigger/null/date/null,
27:u13:2/inside-trigger/TEXT/3,
22:*3:1/post-trigger/TEXT,
22:*4:2/post-trigger/TEXT,
22:*3:1/date/post-trigger,
17:u13:0/null/TEXT/1,
22:*6:1/anti-trigger/TEXT,
22:*7:1/anti-trigger/TEXT,
25:u12:2/anti-trigger/TEXT/1,
25:u13:0/anti-trigger/TEXT/1,
23:u14:1/anti-trigger/TEXT,
30:u1:TEXT/anti-trigger/date/null,
22:*7:1/date/anti-trigger,
25:u12:2/date/anti-trigger/1,
25:u13:0/date/anti-trigger/1,
23:u14:1/date/anti-trigger,
27:u13:2/inside-trigger/date/1,
27:u13:2/TEXT/inside-trigger/1,
32:u1:_x-2/_x-1/inside-trigger/null,
27:u13:0/inside-trigger/_x-1/1,
32:u1:_x-1/inside-trigger/null/date,
24:*3:0/null/inside-trigger,
24:*4:2/null/inside-trigger,
29:u5:0/null/inside-trigger/_x-1,
25:*6:-3/null/inside-trigger,
24:*7:1/null/inside-trigger,
24:*8:0/null/inside-trigger,
25:*11:3/inside-trigger/null,
27:u12:0/null/inside-trigger/1,
27:u13:0/null/inside-trigger/1,
25:u14:3/null/inside-trigger,
32:u1:inside-trigger/null/date/date,
28:*2:null/inside-trigger/false,
29:u5:0/date/null/inside-trigger,
24:*4:3/null/inside-trigger,
24:*7:2/null/inside-trigger,
27:u12:0/null/inside-trigger/2,
27:u13:3/null/inside-trigger/2,
24:*7:3/null/inside-trigger,
27:u12:0/null/inside-trigger/3,
27:u13:3/null/inside-trigger/3,
24:*4:4/null/inside-trigger,
30:u1:TEXT/post-trigger/date/date,
30:u1:post-trigger/date/date/TEXT,
27:u5:0/date/date/post-trigger,
17:*3:1/trigger/_x-1,
17:*3:1/TEXT/trigger,
35:u1:date/inside-trigger/date/trigger,
35:u1:inside-trigger/date/trigger/date,
17:*3:1/trigger/date,
17:*4:1/trigger/date,
32:u5:0/trigger/date/inside-trigger,
18:*6:-3/trigger/date,
17:*7:1/trigger/date,
17:*8:0/trigger/date,
18:*11:2/date/trigger,
20:u12:0/trigger/date/1,
20:u13:3/trigger/date/1,
18:u14:3/trigger/date,
25:u1:date/trigger/date/date,
21:*2:trigger/date/false,
22:u5:0/date/trigger/date,
35:u1:inside-trigger/date/null/trigger,
25:u1:date/null/trigger/TEXT,
22:u5:0/trigger/null/date,
22:*4:3/anti-trigger/null,
25:u12:2/anti-trigger/null/2,
22:*4:3/date/anti-trigger,
23:*11:2/anti-trigger/date,
25:u12:2/date/anti-trigger/2,
22:*4:3/anti-trigger/TEXT,
25:u12:2/anti-trigger/TEXT/2,
24:*6:2/inside-trigger/_x-1,
24:*7:0/inside-trigger/_x-1,
27:u12:0/inside-trigger/_x-1/0,
27:u13:3/inside-trigger/_x-1/0,
26:u14:-1/inside-trigger/_x-1,
32:u1:_x-1/inside-trigger/date/date,
17:*6:1/TEXT/trigger,
22:u1:date/null/date/date,
17:u13:1/TEXT/TEXT/0,
17:u13:1/date/TEXT/0,
30:u1:date/date/TEXT/post-trigger,
22:*6:3/post-trigger/TEXT,
25:u13:1/post-trigger/TEXT/0,
19:u5:2/date/null/TEXT,
22:u1:_x-1/TEXT/date/date,
19:u5:3/date/null/TEXT,
24:*3:3/inside-trigger/null,
17:u13:2/null/TEXT/1,
27:u13:0/inside-trigger/null/1,
27:*2:inside-trigger/null/true,
27:u13:0/date/inside-trigger/1,
27:u13:2/date/inside-trigger/2,
23:*11:1/null/post-trigger,
40:u1:null/null/anti-trigger/inside-trigger,
25:u12:1/anti-trigger/null/2,
40:u1:null/anti-trigger/inside-trigger/_x+1,
32:*3:0/inside-trigger/anti-trigger,
32:*4:3/inside-trigger/anti-trigger,
37:u5:0/inside-trigger/anti-trigger/null,
33:*6:-3/inside-trigger/anti-trigger,
32:*7:2/inside-trigger/anti-trigger,
32:*8:0/inside-trigger/anti-trigger,
33:*11:3/anti-trigger/inside-trigger,
35:u12:0/inside-trigger/anti-trigger/2,
35:u13:0/inside-trigger/anti-trigger/2,
33:u14:3/inside-trigger/anti-trigger,
27:u13:0/inside-trigger/date/2,
27:u13:0/date/inside-trigger/2,
27:u13:1/inside-trigger/date/3,
27:u13:2/inside-trigger/date/3,
27:u13:2/date/inside-trigger/3,
30:u1:date/date/null/post-trigger,
30:u1:date/null/post-trigger/TEXT,
27:u5:0/post-trigger/null/date,
22:*3:2/post-trigger/_x-1,
22:*8:1/post-trigger/_x-1,
14:*8:2/null/TEXT,
15:*11:0/_x-1/null,
32:u1:null/null/date/inside-trigger,
32:u1:null/date/inside-trigger/date,
29:u5:0/inside-trigger/date/null,
17:*7:2/trigger/_x-1,
20:u12:0/trigger/_x-1/2,
20:u13:3/trigger/_x-1/2,
27:*4:3/inside-trigger/trigger,
27:*7:2/inside-trigger/trigger,
30:u12:0/inside-trigger/trigger/2,
30:u13:3/inside-trigger/trigger/2,
28:u14:3/inside-trigger/trigger,
20:u13:3/trigger/TEXT/3,
22:u5:1/date/trigger/TEXT,
25:u1:trigger/date/date/TEXT,
29:u5:3/date/inside-trigger/TEXT,
19:u5:3/date/TEXT/date,
32:u1:inside-trigger/date/TEXT/date,
22:u5:2/date/trigger/TEXT,
22:u5:2/date/date/trigger,
30:u1:null/null/date/anti-trigger,
30:u1:null/date/anti-trigger/TEXT,
22:*4:2/anti-trigger/date,
27:u5:0/anti-trigger/date/null,
22:*7:2/anti-trigger/date,
25:u12:2/anti-trigger/date/2,
25:u13:0/anti-trigger/date/2,
30:u1:date/anti-trigger/TEXT/_x+1,
22:*4:2/TEXT/anti-trigger,
27:u5:0/TEXT/anti-trigger/date,
22:*7:2/TEXT/anti-trigger,
25:u12:2/TEXT/anti-trigger/2,
25:u13:0/TEXT/anti-trigger/2,
33:u1:null/null/trigger/post-trigger,
33:u1:null/trigger/post-trigger/_x+1,
25:*3:0/post-trigger/trigger,
25:*4:1/post-trigger/trigger,
30:u5:0/post-trigger/trigger/null,
26:*6:-3/post-trigger/trigger,
25:*7:1/post-trigger/trigger,
25:*8:0/post-trigger/trigger,
26:*11:3/trigger/post-trigger,
28:u12:0/post-trigger/trigger/1,
28:u13:3/post-trigger/trigger/1,
26:u14:3/post-trigger/trigger,
19:u5:1/date/null/TEXT,
24:*6:1/inside-trigger/_x-1,
14:*3:3/date/null,
17:*3:3/trigger/TEXT,
33:u1:TEXT/trigger/date/post-trigger,
17:*3:3/date/trigger,
33:u1:trigger/date/post-trigger/TEXT,
22:*4:1/post-trigger/date,
30:u5:0/post-trigger/date/trigger,
23:u14:2/post-trigger/date,
24:*6:3/inside-trigger/_x-1,
27:u13:2/inside-trigger/_x-1/0,
27:u13:2/TEXT/inside-trigger/0,
25:u14:0/inside-trigger/_x-1,
25:u14:0/TEXT/inside-trigger,
17:u13:0/TEXT/TEXT/0,
17:u13:0/date/TEXT/0,
27:u13:1/inside-trigger/_x-1/1,
27:u13:1/TEXT/inside-trigger/1,
10:u15:2/true,
20:u13:2/trigger/_x-1/1,
20:u13:2/null/trigger/1,
22:u1:date/date/null/date,
17:*2:null/date/true,
27:u13:0/inside-trigger/TEXT/3,
27:u13:0/date/inside-trigger/3,
24:*8:1/inside-trigger/_x-1,
22:*8:1/date/post-trigger,
25:u13:0/post-trigger/_x-1/3,
25:u13:0/TEXT/post-trigger/3,
25:u13:1/post-trigger/_x-1/3,
25:u13:1/TEXT/post-trigger/3,
25:u13:2/post-trigger/_x-1/3,
25:u13:2/TEXT/post-trigger/3,
22:*4:3/date/post-trigger,
27:u5:1/date/post-trigger/TEXT,
22:*4:4/post-trigger/_x-1,
22:*8:2/post-trigger/_x-1,
22:*8:2/TEXT/post-trigger,
27:u13:0/inside-trigger/date/1,
27:u13:0/TEXT/inside-trigger/1,
23:*6:-3/post-trigger/null,
30:u1:TEXT/date/null/post-trigger,
22:*4:4/post-trigger/null,
23:u14:3/post-trigger/null,
30:u1:date/null/TEXT/post-trigger,
22:*8:2/post-trigger/TEXT,
22:*8:3/post-trigger/TEXT,
26:u14:-3/inside-trigger/date,
32:u1:null/date/inside-trigger/TEXT,
30:u1:null/null/anti-trigger/_x+1,
25:u12:2/anti-trigger/null/3,
42:u1:inside-trigger/date/TEXT/inside-trigger,
17:*8:1/trigger/_x-1,
27:*6:2/inside-trigger/trigger,
27:*8:1/inside-trigger/trigger,
17:*8:1/TEXT/trigger,
30:u1:_x-2/_x-1/null/post-trigger,
30:u1:_x-1/null/post-trigger/date,
22:*3:2/post-trigger/null,
27:u5:0/post-trigger/null/_x-1,
22:*7:3/post-trigger/null,
25:u12:0/post-trigger/null/3,
25:u13:3/post-trigger/null/3,
30:u1:null/post-trigger/date/date,
27:u5:0/date/post-trigger/null,
17:*6:3/null/trigger,
20:u13:3/null/trigger/0,
19:u14:-3/null/trigger,
23:u14:2/post-trigger/null,
25:u12:0/anti-trigger/null/3,
22:*7:3/date/anti-trigger,
25:u12:0/date/anti-trigger/3,
25:u13:0/date/anti-trigger/3,
30:u1:anti-trigger/date/null/TEXT,
27:u13:0/inside-trigger/_x-1/3,
27:u13:0/null/inside-trigger/3,
27:*2:null/inside-trigger/true,
27:u13:0/inside-trigger/date/3,
24:*8:1/null/inside-trigger,
24:*8:2/inside-trigger/date,
24:*8:2/inside-trigger/_x-1,
24:*8:2/null/inside-trigger,
24:*8:3/inside-trigger/date,
24:*8:3/inside-trigger/_x-1,
24:*8:3/null/inside-trigger,
30:u1:_x-2/_x-1/anti-trigger/TEXT,
22:*7:3/anti-trigger/_x-1,
22:*8:3/anti-trigger/_x-1,
23:*11:3/_x-1/anti-trigger,
25:u12:3/anti-trigger/_x-1/3,
25:u13:0/anti-trigger/_x-1/3,
30:u1:_x-1/anti-trigger/TEXT/date,
27:u5:0/TEXT/anti-trigger/_x-1,
30:u1:anti-trigger/TEXT/date/TEXT,
26:*2:TEXT/anti-trigger/false,
27:u5:0/date/TEXT/anti-trigger,
32:u1:inside-trigger/date/null/date,
19:u5:2/date/null/date,
30:u1:null/date/anti-trigger/null,
25:u12:2/anti-trigger/date/1,
25:u12:2/null/anti-trigger/1,
27:u13:2/inside-trigger/_x-1/3,
27:u13:2/null/inside-trigger/3,
24:*8:3/TEXT/inside-trigger,
33:*11:2/anti-trigger/inside-trigger,
22:*7:0/post-trigger/date,
25:u12:0/post-trigger/date/0,
25:u13:3/post-trigger/date/0,
17:*4:4/null/trigger,
18:*6:-3/null/trigger,
18:*11:2/trigger/null,
19:u14:-1/null/trigger,
20:*2:null/trigger/true,
40:u1:TEXT/inside-trigger/date/post-trigger,
40:u1:inside-trigger/date/post-trigger/TEXT,
37:u5:0/post-trigger/date/inside-trigger,
24:u14:-3/post-trigger/date,
24:u14:-3/TEXT/post-trigger,
26:u14:-2/inside-trigger/TEXT,
26:u14:-2/date/inside-trigger,
22:*6:2/anti-trigger/TEXT,
25:u12:0/anti-trigger/TEXT/1,
23:u14:2/anti-trigger/TEXT,
17:*3:3/trigger/_x-1,
27:*3:3/inside-trigger/trigger,
35:u1:trigger/inside-trigger/date/TEXT,
35:u1:TEXT/inside-trigger/date/trigger,
35:u1:inside-trigger/date/trigger/TEXT,
17:*3:2/trigger/date,
18:*11:1/date/trigger,
19:u14:-3/trigger/date,
25:u1:date/trigger/TEXT/_x+1,
22:u5:0/TEXT/trigger/date,
22:*6:2/post-trigger/null,
18:*11:1/trigger/null,
23:u14:2/post-trigger/TEXT,
23:u14:2/date/post-trigger,
11:u15:-2/true,
22:*4:2/post-trigger/null,
22:*8:3/post-trigger/null,
22:*8:3/TEXT/post-trigger,
17:*8:3/trigger/null,
22:*8:3/post-trigger/_x-1,
25:*2:TEXT/post-trigger/true,
27:*7:0/inside-trigger/trigger,
30:u12:0/inside-trigger/trigger/0,
30:u13:3/inside-trigger/trigger/0,
28:u14:1/inside-trigger/trigger,
24:*6:2/inside-trigger/date,
25:u14:1/inside-trigger/date,
27:*2:inside-trigger/date/true,
17:*4:2/trigger/_x-1,
35:u1:trigger/TEXT/date/inside-trigger,
22:*3:1/post-trigger/null,
24:u14:-3/post-trigger/null,
27:u13:2/inside-trigger/date/2,
27:u13:2/TEXT/inside-trigger/2,
32:u1:TEXT/date/inside-trigger/null,
32:u1:date/inside-trigger/null/null,
29:u5:0/null/inside-trigger/date,
32:u1:inside-trigger/null/null/null,
29:u5:0/null/null/inside-trigger,
30:u1:date/date/date/post-trigger,
30:u1:date/date/post-trigger/TEXT,
27:u5:0/post-trigger/date/date,
22:*6:1/post-trigger/date,
25:u13:1/post-trigger/date/0,
23:u14:1/post-trigger/date,
25:u13:1/TEXT/post-trigger/0,
22:*4:2/anti-trigger/null,
30:u1:null/anti-trigger/date/TEXT,
22:*4:2/date/anti-trigger,
27:u5:1/date/anti-trigger/null,
25:u12:1/date/anti-trigger/1,
22:*4:2/anti-trigger/TEXT,
25:u12:1/anti-trigger/TEXT/1,
25:u12:2/TEXT/anti-trigger/3,
22:*4:3/TEXT/anti-trigger,
25:u12:0/TEXT/anti-trigger/3,
22:u1:_x-1/null/date/date,
25:u12:3/anti-trigger/null/1,
25:u12:3/date/anti-trigger/1,
22:*4:3/anti-trigger/date,
25:u12:0/anti-trigger/date/2,
22:*4:3/null/anti-trigger,
25:u12:0/null/anti-trigger/2,
25:u12:0/anti-trigger/date/3,
25:u12:0/null/anti-trigger/3,
24:*6:2/TEXT/inside-trigger,
32:u1:TEXT/null/null/inside-trigger,
32:u1:null/null/inside-trigger/_x+1,
32:u1:null/date/date/inside-trigger,
25:u14:0/inside-trigger/TEXT,
25:u14:0/date/inside-trigger,
25:u12:0/anti-trigger/TEXT/2,
22:*4:4/date/anti-trigger,
25:u12:1/date/anti-trigger/2,
25:u13:0/post-trigger/null/2,
25:u13:0/TEXT/post-trigger/2,
22:*3:3/post-trigger/TEXT,
22:*3:3/date/post-trigger,
26:u14:-2/inside-trigger/_x-1,
26:u14:-2/TEXT/inside-trigger,
25:u1:TEXT/TEXT/date/trigger,
25:u1:TEXT/date/trigger/TEXT,
17:*4:3/trigger/date,
22:u5:0/trigger/date/TEXT,
17:*7:2/trigger/date,
18:*11:3/date/trigger,
20:u12:0/trigger/date/2,
20:u13:3/trigger/date/2,
17:u13:0/null/date/0,
25:u13:3/post-trigger/TEXT/0,
24:u14:-1/post-trigger/TEXT,
25:u12:0/anti-trigger/TEXT/0,
27:u5:1/date/anti-trigger/TEXT,
25:u12:0/date/anti-trigger/0,
25:*11:2/inside-trigger/null,
23:u14:1/post-trigger/TEXT,
32:u1:null/TEXT/date/inside-trigger,
26:u14:-2/inside-trigger/date,
26:u14:-1/inside-trigger/date,
22:*3:3/anti-trigger/TEXT,
22:*7:3/anti-trigger/TEXT,
22:*8:2/anti-trigger/TEXT,
25:u12:2/anti-trigger/TEXT/3,
25:u13:0/anti-trigger/TEXT/3,
22:*3:3/date/anti-trigger,
22:*8:2/date/anti-trigger,
25:u12:2/date/anti-trigger/3,
33:u1:anti-trigger/date/TEXT/trigger,
17:*8:2/trigger/TEXT,
24:*6:2/inside-trigger/null,
22:*8:1/anti-trigger/date,
22:*8:1/TEXT/anti-trigger,
25:u12:1/TEXT/anti-trigger/2,
19:u5:1/date/null/_x-1,
40:u1:date/inside-trigger/date/post-trigger,
40:u1:inside-trigger/date/post-trigger/null,
25:u13:1/post-trigger/date/2,
30:u1:date/post-trigger/null/TEXT,
22:*3:0/null/post-trigger,
22:*4:4/null/post-trigger,
27:u5:0/null/post-trigger/date,
23:*6:-3/null/post-trigger,
22:*7:2/null/post-trigger,
22:*8:0/null/post-trigger,
23:*11:3/post-trigger/null,
25:u12:0/null/post-trigger/2,
25:u13:1/null/post-trigger/2,
23:u14:3/null/post-trigger,
30:u1:post-trigger/null/TEXT/_x+1,
26:*2:null/post-trigger/false,
27:u5:0/TEXT/null/post-trigger,
25:u13:1/post-trigger/date/3,
22:*7:3/null/post-trigger,
25:u12:0/null/post-trigger/3,
25:u13:1/null/post-trigger/3,
25:u13:2/post-trigger/date/3,
25:u13:2/null/post-trigger/3,
25:u13:3/null/post-trigger/3,
25:u13:2/post-trigger/TEXT/2,
25:u13:2/date/post-trigger/2,
40:u1:post-trigger/date/TEXT/inside-trigger,
25:u1:null/trigger/date/TEXT,
25:u1:trigger/date/TEXT/date,
22:*6:3/post-trigger/_x-1,
29:u5:1/date/null/inside-trigger,
25:u13:0/post-trigger/_x-1/0,
25:u13:0/TEXT/post-trigger/0,
27:u13:0/inside-trigger/date/0,
27:u13:0/date/inside-trigger/0,
25:u13:1/post-trigger/_x-1/1,
25:u13:2/post-trigger/_x-1/2,
25:u13:2/TEXT/post-trigger/2,
30:u1:post-trigger/TEXT/date/null,
28:*11:1/trigger/inside-trigger,
25:u14:1/inside-trigger/_x-1,
25:u14:1/TEXT/inside-trigger,
27:*3:1/inside-trigger/trigger,
28:*6:-3/inside-trigger/trigger,
27:u13:1/inside-trigger/TEXT/2,
27:u13:1/date/inside-trigger/2,
22:*8:3/anti-trigger/TEXT,
25:u12:3/anti-trigger/TEXT/3,
19:u14:-2/trigger/_x-1,
27:*4:2/inside-trigger/trigger,
29:u14:-2/inside-trigger/trigger,
25:u1:TEXT/null/null/trigger,
18:u14:2/trigger/null,
25:*11:0/date/inside-trigger,
25:*11:0/inside-trigger/TEXT,
32:u1:null/TEXT/inside-trigger/date,
22:*6:2/anti-trigger/null,
22:*8:1/anti-trigger/null,
22:*6:2/TEXT/anti-trigger,
25:u12:3/TEXT/anti-trigger/1,
26:u14:-1/TEXT/inside-trigger,
22:*8:2/date/post-trigger,
29:u5:1/date/TEXT/inside-trigger,
30:u1:date/null/null/anti-trigger,
33:u1:null/null/anti-trigger/trigger,
33:u1:null/anti-trigger/trigger/_x+1,
25:*3:0/trigger/anti-trigger,
25:*4:2/trigger/anti-trigger,
30:u5:0/trigger/anti-trigger/null,
26:*6:-3/trigger/anti-trigger,
25:*7:2/trigger/anti-trigger,
25:*8:0/trigger/anti-trigger,
26:*11:3/anti-trigger/trigger,
28:u12:0/trigger/anti-trigger/2,
28:u13:0/trigger/anti-trigger/2,
26:u14:2/trigger/anti-trigger,
27:u13:1/inside-trigger/null/3,
27:u13:2/inside-trigger/null/3,
25:u1:date/date/null/trigger,
30:u1:TEXT/date/anti-trigger/TEXT,
22:*6:1/anti-trigger/date,
23:*11:2/date/anti-trigger,
23:*11:2/anti-trigger/TEXT,
23:u14:2/TEXT/anti-trigger,
25:u1:date/date/date/trigger,
25:u1:date/date/trigger/date,
17:*4:4/trigger/date,
22:u5:0/trigger/date/date,
17:*7:3/trigger/date,
17:*8:1/trigger/date,
20:u12:0/trigger/date/3,
20:u13:3/trigger/date/3,
22:u5:1/date/trigger/date,
22:*3:1/anti-trigger/date,
22:*8:1/null/anti-trigger,
20:u13:3/trigger/_x-1/3,
27:*7:3/inside-trigger/trigger,
30:u12:0/inside-trigger/trigger/3,
30:u13:3/inside-trigger/trigger/3,
30:u1:null/anti-trigger/null/TEXT,
22:*3:1/anti-trigger/TEXT,
25:u13:3/date/post-trigger/0,
27:u13:1/inside-trigger/TEXT/1,
27:u13:1/date/inside-trigger/1,
33:u1:null/date/anti-trigger/trigger,
33:u1:date/anti-trigger/trigger/_x+1,
25:*4:3/trigger/anti-trigger,
30:u5:0/trigger/anti-trigger/date,
25:*7:1/trigger/anti-trigger,
28:u12:0/trigger/anti-trigger/1,
28:u13:0/trigger/anti-trigger/1,
26:u14:3/trigger/anti-trigger,
20:u13:0/trigger/null/1,
22:u5:2/date/trigger/null,
20:u13:0/date/trigger/1,
20:u13:0/trigger/null/2,
20:u13:1/date/trigger/2,
20:u13:1/trigger/null/3,
22:u5:3/date/trigger/null,
20:u13:1/date/trigger/3,
22:u5:3/date/date/trigger,
20:u13:0/trigger/_x-1/1,
20:u13:0/TEXT/trigger/1,
20:u13:2/trigger/TEXT/1,
17:*3:3/TEXT/trigger,
17:*3:3/trigger/date,
25:u1:date/trigger/TEXT/date,
25:u12:0/date/anti-trigger/1,
25:u12:1/anti-trigger/date/1,
25:u12:1/TEXT/anti-trigger/1,
17:*3:2/trigger/null,
20:u13:0/trigger/null/3,
30:u1:date/date/TEXT/anti-trigger,
25:u12:0/anti-trigger/TEXT/3,
24:*8:2/TEXT/inside-trigger,
17:*8:3/trigger/TEXT,
17:*8:3/date/trigger,
20:u13:2/trigger/TEXT/3,
20:u13:2/date/trigger/3,
25:u1:date/TEXT/trigger/date,
23:*11:2/_x-1/post-trigger,
17:*8:2/date/trigger,
27:u13:1/inside-trigger/date/1,
30:u1:date/date/post-trigger/null,
22:*4:1/null/post-trigger,
22:*6:1/null/post-trigger,
22:*7:0/null/post-trigger,
23:*11:1/post-trigger/null,
25:u12:0/null/post-trigger/0,
25:u13:3/null/post-trigger/0,
23:u14:1/null/post-trigger,
23:*11:1/date/anti-trigger,
22:*4:2/null/anti-trigger,
23:*11:1/anti-trigger/null,
25:u12:1/null/anti-trigger/1,
25:u1:trigger/TEXT/date/null,
30:u1:TEXT/date/date/post-trigger,
30:u1:date/date/post-trigger/date,
22:*6:3/date/post-trigger,
30:u1:TEXT/null/null/anti-trigger,
25:u12:1/anti-trigger/null/3,
20:u13:1/trigger/TEXT/2,
25:u13:1/TEXT/post-trigger/2,
20:u13:1/trigger/TEXT/0,
20:u13:1/date/trigger/0,
25:u13:1/post-trigger/null/3,
20:u13:3/TEXT/trigger/3,
19:u5:1/date/null/date,
25:*11:0/null/inside-trigger,
22:*6:3/anti-trigger/TEXT,
24:u14:-3/anti-trigger/TEXT,
22:*4:3/post-trigger/null,
30:u1:null/post-trigger/date/TEXT,
30:u1:null/null/post-trigger/null,
30:u1:null/post-trigger/null/null,
27:u5:0/null/post-trigger/null,
23:*11:2/post-trigger/null,
25:u13:3/null/post-trigger/2,
30:u1:post-trigger/null/null/null,
27:u5:0/null/null/post-trigger,
25:u12:2/anti-trigger/null/1,
32:u1:inside-trigger/date/null/TEXT,
22:*4:2/null/post-trigger,
22:*7:1/null/post-trigger,
25:u12:0/null/post-trigger/1,
25:u13:3/null/post-trigger/1,
30:u1:post-trigger/null/null/TEXT,
24:*4:1/null/inside-trigger,
24:*6:1/null/inside-trigger,
27:u13:3/null/inside-trigger/1,
26:u14:-1/null/inside-trigger,
22:*8:2/post-trigger/date,
25:u1:null/TEXT/trigger/date,
24:*6:1/inside-trigger/null,
30:u1:date/date/anti-trigger/date,
22:*7:0/anti-trigger/date,
25:u12:1/anti-trigger/date/0,
25:u13:0/anti-trigger/date/0,
30:u1:date/anti-trigger/date/null,
27:u5:0/date/anti-trigger/date,
33:u1:_x-2/_x-1/trigger/post-trigger,
33:u1:_x-1/trigger/post-trigger/date,
25:*3:1/post-trigger/trigger,
25:*4:4/post-trigger/trigger,
30:u5:0/post-trigger/trigger/_x-1,
25:*7:2/post-trigger/trigger,
28:u12:0/post-trigger/trigger/2,
28:u13:3/post-trigger/trigger/2,
33:u1:trigger/post-trigger/date/date,
29:*2:post-trigger/trigger/false,
30:u5:0/date/post-trigger/trigger,
30:u1:post-trigger/date/date/date,
30:u1:date/null/TEXT/anti-trigger,
27:*4:4/inside-trigger/trigger,
30:*2:inside-trigger/trigger/true,
17:*8:2/trigger/_x-1,
27:*8:2/inside-trigger/trigger,
17:*8:3/trigger/_x-1,
27:*8:3/inside-trigger/trigger,
27:u13:0/inside-trigger/TEXT/1,
27:u13:0/inside-trigger/TEXT/2,
27:u13:2/inside-trigger/null/2,
22:*6:1/post-trigger/TEXT,
30:u1:TEXT/date/TEXT/anti-trigger,
25:*7:3/post-trigger/trigger,
28:u12:0/post-trigger/trigger/3,
28:u13:3/post-trigger/trigger/3,
25:u14:1/inside-trigger/null,
22:*6:3/anti-trigger/null,
22:*6:3/TEXT/anti-trigger,
20:u13:0/trigger/_x-1/0,
20:u13:0/null/trigger/0,
40:u1:_x-2/_x-1/post-trigger/inside-trigger,
40:u1:_x-1/post-trigger/inside-trigger/date,
32:*3:0/inside-trigger/post-trigger,
32:*4:4/inside-trigger/post-trigger,
37:u5:0/inside-trigger/post-trigger/_x-1,
33:*6:-3/inside-trigger/post-trigger,
32:*7:3/inside-trigger/post-trigger,
32:*8:3/inside-trigger/post-trigger,
33:*11:3/post-trigger/inside-trigger,
35:u12:0/inside-trigger/post-trigger/3,
35:u13:3/inside-trigger/post-trigger/3,
33:u14:3/inside-trigger/post-trigger,
40:u1:post-trigger/inside-trigger/date/date,
35:*2:inside-trigger/post-trigger/true,
37:u5:0/date/inside-trigger/post-trigger,
30:u1:null/date/TEXT/anti-trigger,
22:*6:1/date/post-trigger,
22:*3:1/date/anti-trigger,
25:u12:1/date/anti-trigger/3,
25:u12:1/anti-trigger/TEXT/3,
22:u1:_x-1/null/date/null,
19:u5:3/date/null/_x-1,
25:u1:trigger/null/null/TEXT,
27:u13:2/inside-trigger/_x-1/1,
27:u13:2/inside-trigger/_x-1/2,
25:u13:2/post-trigger/date/1,
25:u13:2/TEXT/post-trigger/1,
25:u13:2/post-trigger/TEXT/1,
25:u13:2/date/post-trigger/1,
25:u12:3/anti-trigger/null/2,
25:u12:3/date/anti-trigger/2,
15:u14:0/date/date,
25:u14:0/inside-trigger/date,
32:u1:date/date/inside-trigger/null,
24:*6:3/null/inside-trigger,
25:*11:1/inside-trigger/null,
25:u14:1/null/inside-trigger,
25:u1:null/trigger/TEXT/date,
22:u5:1/date/TEXT/trigger,
30:u1:TEXT/anti-trigger/date/date,
30:u1:anti-trigger/date/date/TEXT,
27:u5:0/date/date/anti-trigger,
32:u1:date/TEXT/date/inside-trigger,
27:u13:2/TEXT/inside-trigger/3,
20:u13:0/trigger/_x-1/3,
30:u13:0/inside-trigger/trigger/3,
22:*8:3/date/anti-trigger,
30:u1:post-trigger/date/date/null,
23:u14:1/post-trigger/_x-1,
25:u13:0/post-trigger/_x-1/2,
24:u14:-3/post-trigger/_x-1,
25:u1:null/trigger/null/date,
22:u5:1/date/null/trigger,
25:*4:1/trigger/anti-trigger,
26:u14:1/trigger/anti-trigger,
32:u1:null/date/null/inside-trigger,
32:u1:date/null/inside-trigger/TEXT,
29:u5:0/inside-trigger/null/date,
3=0x1.f9878524e2fd5p+1
5=-0x1.ec8c1d1e3e349p+0
15=0x1.64df7976f1c84p-3
41=-0x1.eb2f3e06ef62cp-3
78=-0x1.50812c4e0eeedp-6
79=-0x1.1aee284c0b4f4p-6
80=-0x1.60bc7749d3b25p-6
81=0x1.edaa15858fc49p-3
82=0x1.d97d23fbe8cbfp-4
83=-0x1.e972a0a55478ap-2
84=-0x1.cbc300d75449fp-2
86=0x1.05de7b0a11a5ap-3
87=-0x1.17161fbd66fd9p-3
89=0x1.0a66804fe5fa6p-3
90=0x1.8b3109bb0da6bp-3
91=-0x1.693436c03e5c2p-3
92=-0x1.c8d7c1abc480dp-5
93=0x1.963a0c24dca4p-2
94=-0x1.432e8d0717e22p-5
95=-0x1.6012a9b9479cp-1
96=-0x1.d268f6518cf7cp-2
98=0x1.b943fd237a82p-3
99=-0x1.cd32229d84823p-4
101=0x1.fdb3b6b030044p-6
123=0x1.525a5e73f220cp-3
124=-0x1.bc95b6bf6a9fap-3
125=0x1.1a5171a8b55adp-8
126=0x1.06f610680d59ep-1
127=-0x1.427e3115e5b0cp-1
128=-0x1.9959e4e3df50ep-3
129=0x1.338d9e15a7b4p+0
130=-0x1.ba8c94bb0892ap-4
131=-0x1.e185dee770e4ap+2
132=-0x1.1f58982857698p+2
133=-0x1.912151710c477p+0
134=0x1.308176970c091p-2
135=-0x1.bd754a41c05f5p-2
136=-0x1.3b33f12ced774p+1
137=0x1.d0b922da9a436p-2
141=0x1.ee27d6eeb00f5p-11
142=-0x1.34ba2521bd048p-11
143=-0x1.66397eef12c54p-5
144=0x1.5c394e0f6c993p-3
351=-0x1.5c3bd0b4c10ebp-4
353=0x1.ab102dd91e867p-4
354=0x1.e2dcc2eb37722p-8
360=-0x1.17d3c188a1d67p-8
362=0x1.d49f8d9f25b49p-6
363=-0x1.f9eaaa48c0312p-10
365=0x1.0ac07a62b5849p-6
366=-0x1.9ca007d333683p-12
371=-0x1.f3725af8965acp-4
372=0x1.0b08765495feep-6
374=0x1.2addd7d2c3f8ap-4
378=-0x1.c75e414065e29p-4
380=0x1.11b5743bcd462p-3
381=-0x1.a67f2cb0d0241p-7
386=-0x1.08a4d01ac4a9fp-5
387=0x1.1cbaf44b3be6ap-8
389=0x1.11d15140d4f42p-1
390=0x1.8c4a3d2cfd537p-7
392=0x1.3a3fee2afd904p-14
398=-0x1.b0eac6cb4af8dp-3
399=-0x1.276df8844ca9cp-7
401=0x1.4c44ec3868cdcp-4
402=-0x1.2bdbb725c0b46p-5
403=-0x1.97bf02bfe801p-5
404=0x1.d03d2cb2459e9p-3
405=0x1.f3f34192cea41p-4
408=-0x1.21e1026686751p-2
410=-0x1.d1c73e853a456p-7
411=-0x1.5e9b56065fe7p-10
413=0x1.2216287cdc011p-4
414=-0x1.a85d32d8c332p-11
416=0x1.61be0695f20a3p-10
417=-0x1.016835317d1e8p-7
423=0x1.bdf7533adfba8p-6
425=0x1.df4f75c2a1bd4p-4
426=-0x1.94531f9a29827p-8
428=0x1.839dae698368dp-6
432=-0x1.0fa871ab738p-4
434=0x1.0ef1950f1ae62p-4
438=0x1.f80d6511c20bfp-4
439=-0x1.460d0b26e57bfp+0
440=0x1.11a1ac60c6fc2p-12
441=0x1.b36852e877ea7p-3
442=-0x1.13574171cd883p+0
447=-0x1.13056bd8b2135p-4
449=0x1.ab0541298f922p-3
452=0x1.36f72de978aa1p-10
459=0x1.01706317cb5dp-3
461=0x1.01a44933e6dacp-10
462=-0x1.03ba5d77325abp-14
473=0x1.b20529056bcf8p-9
474=-0x1.1b84f50643a57p-8
476=0x1.06317f818d115p-10
480=-0x1.23378dbf90aa4p-5
486=0x1.28a01aff12476p-2
492=0x1.76fa567591a2fp-5
498=-0x1.8a96244f9effcp-3
504=-0x1.5890729cb72fp-5
510=0x1.eb63859b6440dp-3
512=0x1.78f94270dbb86p-9
516=-0x1.4c97f3d5387f2p-6
522=0x1.89aca43578e5p-2
537=0x1.adb3ee83dafe1p-6
538=-0x1.b7ebc85bc63ccp-13
540=0x1.2dc388879639fp-4
541=0x1.93298c57cf5bcp-11
545=-0x1.8de8a1de908cbp-5
548=0x1.7edd06b322bb6p-10
549=0x1.0433570f76e23p-3
550=-0x1.c7f0f8db9bd9cp-5
551=-0x1.21a68990b8bfcp-5
552=0x1.1973394b99731p-2
553=-0x1.07107e310e912p-5
557=-0x1.52e30551bf4c4p-13
558=-0x1.dd35ec2e6dd6dp-2
560=0x1.8ecf7d6da477dp-5
561=0x1.ac08b1e1f88cdp-6
562=-0x1.06df518c81592p-5
563=-0x1.69ae3f699b22bp-8
564=0x1.4b2e8a02abd7bp-3
565=-0x1.e397f67b3032ep-6
570=-0x1.b33716622d672p-2
572=0x1.d458df7e362bcp-2
576=-0x1.af83f12209edp-7
577=-0x1.50038dde5ecb4p-2
578=0x1.46a9adbdaed8fp-4
579=0x1.2c8e568a22ed2p-6
580=-0x1.c1cc2264bc132p-2
585=-0x1.12740b5e6f0a5p+0
587=0x1.269b8bbaf182bp-3
588=-0x1.5cee1a08852e4p-3
589=-0x1.6ea43c81df416p-8
590=0x1.3aea78a1f8acep-3
591=0x1.19ab6446c095ep-4
592=-0x1.f67ef36c28b9dp-11
597=-0x1.cc382fd91a03cp-7
599=0x1.8cab4df0647e7p-3
600=0x1.649598a1c84a6p-4
601=-0x1.195c9afbd4831p-5
602=0x1.bf804dbb08af2p-9
603=0x1.bea73c306f903p-3
604=-0x1.6849dcfde316ep-6
609=-0x1.793d7e170e202p-1
611=0x1.ed57730241e12p-2
612=0x1.776b229d5e626p-11
615=0x1.c1139329a0f1p-9
620=0x1.047bc59a013d2p-5
623=-0x1.02eea69f1da85p-11
630=-0x1.9f7e636089cebp-3
631=-0x1.347f543fe065p-3
632=0x1.9c8d1df7f6b84p-3
633=0x1.5bed8b903ec27p-4
635=-0x1.7b84c9dcc6b1dp-5
636=0x1.4f1a70251cc43p-3
637=0x1.376b7d264f60dp-5
638=0x1.51c3df309f0a4p-3
639=0x1.ebf463e33697cp-3
640=0x1.4a3fc2b4c2211p-6
644=0x1.04b955254b293p-3
645=-0x1.5b4b2992943b3p-4
647=0x1.f0fd42306a057p-2
648=-0x1.ccc916711e7ddp-7
650=0x1.f74cbbdece23ep-4
651=-0x1.cb21bd7ad82c2p-9
653=0x1.6215121015325p-11
654=0x1.00ded625cb927p-5
657=0x1.ebedc08bc94e2p-8
658=-0x1.56dd97cc87eap-2
660=0x1.9b793b40b2cf6p-4
661=-0x1.8c6bf1e7fff92p-2
672=0x1.2645d7f5ec217p-5
681=0x1.a564ee57d9618p-2
682=-0x1.56d5ae763cbb6p-3
693=0x1.5ac9c9b9958e4p-6
708=0x1.e8d0b77f36dcfp-8
709=-0x1.6d1acc67f1482p-2
711=0x1.638f3eaf448a9p-3
712=-0x1.90d0d90986397p-2
792=0x1.6f70b7411656dp-2
798=-0x1.bf04bec421bcap-5
804=0x1.4e9e56f4779b7p-2
807=0x1.8e0b624253faap+0
819=0x1.19a9742d052dbp-2
828=0x1.5168d26ece0f4p-2
830=-0x1.03ae9e787d697p-3
831=0x1.b3fb05a0e123cp-1
837=-0x1.259c95cf57556p-6
843=0x1.f9d12cae490d4p-2
861=0x1.e3e2d2ba09972p-2
862=-0x1.6fb2e31cf5fb5p-2
864=-0x1.5d63a9de028bdp-4
865=0x1.a971cbf79733cp-5
867=-0x1.2f6b97b62f714p-3
868=0x1.1a97f8474351bp-4
876=0x1.8493ee269c76ap-2
877=-0x1.28a4bfd80e89bp-4
879=0x1.224b9ce27f9a1p-1
880=-0x1.860002fd12b33p-4
888=-0x1.3b55633de3cdap-4
889=-0x1.76ff3fa4942f5p-12
890=0x1.aace81e27eb58p-2
891=-0x1.f10c470e02c65p-6
892=0x1.440c694ae4886p-6
896=0x1.0b9308d048212p-4
899=0x1.021f58c6d334ap-2
900=-0x1.48b3316dae092p-9
901=0x1.e28b878c4ccfdp-6
902=0x1.1e8d421a9f4ep-10
903=0x1.772c5d3e4dbacp-6
904=0x1.46a92aab498d4p-6
906=0x1.273b7bd6eb426p-4
907=0x1.d1f241367debdp-6
914=0x1.65767476f660ap-5
915=-0x1.350fd777ad6a4p-2
916=0x1.37622b0445fe3p-5
917=0x1.481eb4c15892cp-2
918=-0x1.d4fee888ca185p-4
919=0x1.51686aae22ea7p-4
923=0x1.af97986abfbeap-5
926=0x1.bb173dcc79be3p-3
927=-0x1.3510dfc24f092p-4
928=0x1.bfae594aec9acp-6
929=0x1.d95f3043c4ca5p-4
930=0x1.748d209b0cab2p-9
931=0x1.13c0c6d6ba4e8p-4
935=0x1.2235608edac36p-5
938=0x1.1c48332d2ce6fp-3
939=-0x1.fb0a8566d52b1p-12
942=0x1.5e1014082809bp-7
943=0x1.d7acc0ca8ee9fp-9
950=0x1.62b161e2ec96ep-5
951=-0x1.92e893868a6cbp-5
952=-0x1.7faa48ba4b07ep-8
953=0x1.de8421306b4p-1
957=0x1.71de8563a75f8p-9
958=-0x1.0512a8f6357bap-2
959=0x1.e5da859bf9debp-4
963=-0x1.249d706020fbp-11
964=-0x1.b41dceb59a03cp-8
965=0x1.ee3e50427c641p-4
966=0x1.d5c0775aacf42p-5
969=-0x1.6f95c87a01617p-3
971=0x1.74cdb7860072ep-3
974=0x1.c08b1a0e2157ap-7
975=0x1.3ff1577f74d8bp-5
978=0x1.18a9fb8c68305p-6
984=0x1.d5eae586ee92p-10
987=0x1.79ec1ad8c6386p-5
990=0x1.5f0ed69eb8818p-5
993=-0x1.665da57ec049ep-5
996=-0x1.28f558d1b9194p-3
999=0x1.7eb9c1e4def25p-1
1008=0x1.67522c53ee6aep-4
1010=-0x1.3c505237d140ap-4
1011=0x1.6fc5ae8df3fd8p-4
1013=-0x1.404bc0f261aeep-4
1023=-0x1.5c2f4af3eb39fp-1
1024=0x1.50ba99c9dfb16p-5
1025=0x1.1194c33059d35p-2
1026=-0x1.3ab3f5f344113p-7
1028=0x1.3e0908bfb166dp-6
1029=0x1.b5e59b1960ef4p-9
1031=-0x1.5e0745b6836ep-4
1032=0x1.2fb3f7e8d4532p-3
1034=-0x1.38a9659cf17dfp-3
1056=0x1.2fb3f7e8d4532p-3
1058=-0x1.38a9659cf17dfp-3
1072=0x1.c6de65787e1fdp-7
1073=-0x1.fc109352af1f2p-9
1083=0x1.fe89110b6aa39p-5
1085=-0x1.14641faf6b0dp-3
1095=-0x1.5767adaabdeb9p-8
1096=-0x1.7549792efdc08p-16
1097=0x1.545955e947081p-8
1098=0x1.fe367dc99fac2p-6
1099=0x1.171e53301b982p-6
1103=0x1.624ac0ae0ecb5p-6
1104=-0x1.f40e0c6442fdcp-3
1105=-0x1.70740cf08046dp-6
1106=0x1.850c05ca044e7p-7
1108=0x1.0523729f652f7p-6
1123=0x1.2c3378d012aedp-6
1124=-0x1.5276a40e350e8p-9
1128=0x1.c72fcb4de1285p-1
1129=-0x1.57524a8c021a5p-6
1131=0x1.0e4422b6c64fp-6
1132=0x1.a17efa06d9d6bp-7
1134=0x1.52aa5916bee2fp-4
1136=-0x1.02adf8b9d5637p-5
1137=0x1.4844d92509427p-2
1138=0x1.5ab99f048c665p-9
1145=-0x1.25609452df5dbp-6
1146=0x1.850d2c05014fap-6
1147=0x1.9ce1c0be8d5a9p-5
1148=-0x1.585780c245448p-1
1150=0x1.215724a9800dp-4
1155=0x1.309e95bed8bd8p-1
1157=-0x1.4d8c0ed514126p-3
1158=0x1.0e4422b6c64fp-6
1159=0x1.a17efa06d9d6bp-7
1161=0x1.7590a6f915bb2p-5
1162=0x1.8d7fa1dca6732p-14
1163=-0x1.0964b85521b11p-5
1164=0x1.5147e44dbf7f1p-4
1165=0x1.5786ed9eebb2cp-13
1176=-0x1.f2849ef291757p-4
1178=0x1.27c25b5d1c26cp-3
1179=0x1.1ed74a04af682p-10
1182=-0x1.6e124fdec24bcp-3
1183=0x1.9c5daeff74389p-3
1184=0x1.4047813f33848p-6
1185=-0x1.846198a57f22cp-5
1186=0x1.b84d6af71b768p-4
1187=0x1.b9fe73ee675e3p-10
1188=0x1.a2dc81f4d8197p-8
1189=0x1.a1f0f54c0a409p-3
1190=-0x1.aea0248479026p-2
1196=0x1.677307f270207p-1
1197=-0x1.1cfe2d762e26fp-6
1198=0x1.600e3892d58a1p-5
1200=-0x1.740dcd409bfd2p-6
1201=0x1.05a3d3cdfca3p-4
1205=0x1.0d7587d84cc6p-4
1209=-0x1.9776a6944198cp-3
1210=0x1.4f762850fce89p-3
1211=0x1.e92e41d964298p-2
1212=0x1.ad679c1c4a187p-6
1213=-0x1.0af65925f725cp-6
1214=0x1.b78fdd5bd3cfep-10
1215=0x1.c8ae93b8d4b75p-5
1216=-0x1.82d6154351a9p-9
1220=0x1.1b7e52fc9ce2p-13
1224=-0x1.3ac73bcab44b1p-4
1225=0x1.1a37a17ec9a43p-3
1226=0x1.9012538d7584ep-8
1227=-0x1.4bfa2d2a2a22cp-6
1228=0x1.4867e9666222ap-3
1232=0x1.f10aad9c937fcp-19
1235=0x1.c747e2e8ff80cp-7
1236=-0x1.611e3a282bbf5p-4
1237=0x1.69204e2f3b884p-4
1238=0x1.c44cdb7c6a07fp-4
1239=0x1.d5f78544df7cbp-8
1240=0x1.7cc7a90294755p-3
1244=0x1.101c3f36241a1p-4
1247=0x1.3a3d907a35faap-2
1248=-0x1.71a738f4648cbp-6
1249=0x1.5d7cb3975bc0bp-5
1250=0x1.af8d21744928ep-16
1251=-0x1.a0f1687bca83ep-6
1252=0x1.dfd55ef1cbe6ep-5
1259=0x1.5cd57c0a0c005p-3
1260=-0x1.dfd6cdceb580cp-10
1261=0x1.eb4aea98460f8p-2
1263=-0x1.72b26b63cba7dp-5
1264=0x1.8e3a4bd86d776p-4
1265=0x1.08d8f19b2e9c8p-7
1266=-0x1.0e999bccba64dp-3
1268=0x1.c6361655615e2p-4
1269=-0x1.45b1e2420629fp-6
1270=0x1.3ea22bc46c211p-4
1271=-0x1.7dccaa3ac6de9p-5
1272=-0x1.7b3e4d91458c7p-5
1273=-0x1.2779047855958p-1
1274=0x1.a549b28d4384p-4
1275=-0x1.a0720b4d3db1dp-6
1276=-0x1.d0ba99fd321c6p-1
1277=0x1.ee5cb39f853bdp-4
1278=0x1.b704b6cc13ce4p-6
1279=-0x1.a8e2ff6540c4p-2
1281=-0x1.bbe48c8ddd34dp-2
1283=0x1.14f59737f3252p-2
1284=-0x1.c90bf1795b224p-10
1286=0x1.5229dd15846d3p-6
1287=-0x1.b81363c7fa5cdp-3
1288=-0x1.ef3403272e6dap-3
1289=0x1.ee70e36e2b037p-2
1290=0x1.f94b7f4016a8ep-5
1295=0x1.4ac6a976f4a14p-2
1296=-0x1.8cb8bbc5d8094p-1
1298=0x1.6e5b2bf79ef9bp-2
1299=-0x1.2acc84fb8db35p-4
1301=0x1.cb3172faf75bcp-4
1302=-0x1.0fb506804a6dep-4
1307=0x1.278209e9aa19dp-3
1308=-0x1.80cdb62e2e688p-7
1310=0x1.c9d747847d34dp-4
1311=-0x1.4e04246f55cbbp-4
1312=-0x1.439a73ea4ffb3p-2
1313=0x1.4c05efca9035ep-3
1314=0x1.d498c91a597a8p-10
1315=-0x1.962dca09aa5c4p-1
1316=0x1.d4811b3910ea8p-4
1317=0x1.5cfcb7155451ep-4
1318=-0x1.0fcd3e9999f05p-1
1322=0x1.f7231b0e052bbp-4
1323=-0x1.035779043b1d6p+1
1325=0x1.ad8d66107968fp-4
1326=-0x1.f2edba4dea11p-9
1328=0x1.2961e22cea535p-2
1329=-0x1.2e4db443ee5bcp-9
1330=0x1.0a998914882a2p-4
1334=0x1.18cb16b3fc78fp-2
1335=0x1.73c45227e02f2p-6
1337=0x1.164985348c554p-5
1338=-0x1.0ae8b7742b276p-3
1339=-0x1.e4bba97e2a734p-6
1340=0x1.cb7a592ff27b5p-2
1346=0x1.85a480305d0cdp-2
1349=0x1.0b84ca9083843p-2
1350=-0x1.f8b32606100fbp-6
1351=-0x1.f64a3bee5275p-5
1352=0x1.ce8c25d41ab3ap-4
1353=0x1.583deca6c1364p-6
1358=0x1.25c239c77d0b9p-3
1359=-0x1.00dbe56101e22p-1
1361=0x1.18526c11107a7p-4
1362=-0x1.7ee9f2b815e9ap-3
1364=0x1.e049893998b06p-3
1365=-0x1.14488700b28acp-9
1366=0x1.8e26e33fedadp-20
1367=0x1.14fdfc53c69c3p-2
1368=-0x1.57bb3adbb9fc7p-4
1369=0x1.9a6019488fa2ep-2
1370=0x1.0186551a804fep-4
1371=-0x1.0ed8d248af107p-3
1373=0x1.5a65ddf5b6a24p-3
1374=-0x1.2f83e8e8687bep-4
1376=0x1.cbf9ed371295dp-4
1377=0x1.91b3f366b8724p-7
1378=0x1.87247413959afp-5
1382=-0x1.3f0ae18f11605p-4
1383=0x1.7c539cda06808p-5
1385=0x1.a8623490e91abp-2
1386=-0x1.37cfae180b6e2p-3
1388=0x1.6217ae6ec2509p-2
1389=0x1.f016afdc80dd9p-6
1391=-0x1.e916b704bf181p-8
1392=0x1.4bb109b88b20ap-5
1394=0x1.426f2d657d1b7p-9
1395=0x1.03553321437bep-9
1400=0x1.55923497672e2p-4
1401=0x1.b5d8e3887a4ap-3
1403=0x1.2842e47673235p-8
1406=0x1.1e066740aebaep-9
1407=-0x1.2efbd78ae0d97p-7
1413=0x1.39620a09fc3e8p-5
1415=0x1.06dd0ad9f3c0fp-4
1416=0x1.5a1cfb27e378cp-8
1418=-0x1.848e5a4846e4dp-9
1422=0x1.99434fac65cdfp-4
1428=-0x1.629155bd77de4p-5
1431=0x1.5957ae1a96491p-6
1433=-0x1.477bd146e6d2p-7
1434=-0x1.410f27624e37ep-7
1439=-0x1.0520c4ef2d1ep-3
1440=0x1.37b913443e1b8p-3
1442=0x1.5b26731efd3e1p-5
1443=-0x1.f0f14af3eb82dp-10
1445=0x1.54d0bcf9b9777p-6
1446=0x1.003044e3fb4b7p-7
1451=0x1.7a919ff2ce6efp-4
1452=0x1.6da23d2c4fc4p-3
1454=-0x1.3b0cdddb1ed8p-18
1455=0x1.860cfd66c6854p-5
1456=-0x1.9d24996210306p-5
1457=-0x1.6e5acced51c42p-6
1458=0x1.7f6895ed124cdp-4
1459=-0x1.02884834a9a59p-6
1463=-0x1.aa172f823a7e8p-7
1464=0x1.61c39bc279244p-6
1466=0x1.0f613c40c2b31p-6
1470=0x1.e1a17e89d9009p-11
1476=0x1.75c156365293dp-5
1482=0x1.bf87dec6cb2fap-6
1484=-0x1.0cc3f6df6cfe4p-6
1488=0x1.941c6de6ede92p-8
1490=-0x1.8f4a2cc2e8046p-10
1491=-0x1.92b1b1ac26b69p-3
1492=-0x1.3ffd08a2a6c3fp-4
1493=0x1.2224257d67aeep-3
1494=0x1.ae6d85b9a6f68p-4
1495=-0x1.112ee91f0b02fp-5
1500=-0x1.c0ae19278aa94p-2
1502=0x1.7cc2a59562beap-2
1503=-0x1.5b28b60dd5e6p-5
1505=0x1.a00793bebc64ep-5
1506=-0x1.486d944c2e034p-8
1508=0x1.9e410083cd80cp-6
1509=0x1.c6aefc5f58bf7p-4
1514=-0x1.1b68c1c513ea1p-9
1517=0x1.0cf56e1274e78p-3
1521=-0x1.276e2438bab5ep-8
1523=0x1.755a9f23e7017p-6
1524=0x1.4d3dbb6851e82p-6
1526=-0x1.b01ae224e407cp-11
1533=0x1.189a950d779dcp-4
1542=0x1.104eddcfeacc5p-3
1545=0x1.5cb41452bf09fp-1
1557=0x1.6bc39cdbf4abfp-1
1575=0x1.8aee15f312dbdp-2
1576=-0x1.baabde2c227a5p-3
1578=0x1.08ac5811fd0bap-4
1579=-0x1.60781687f99b4p-6
1581=0x1.a7bbfb1fe2c4p-5
1582=-0x1.01abb9cead58cp-6
1590=0x1.dc247ad1b8526p-14
1593=0x1.d9c8f81af9f45p-2
1602=0x1.9a7a176c50998p-4
1605=0x1.26ec278566cc3p-2
1611=-0x1.77c325c90648dp-6
1614=0x1.87954a5c563fep-2
1615=-0x1.b8ebf013af6b4p-3
1620=0x1.0a9abcac53dd8p-2
1636=0x1.e422240bcb12ep-8
1683=0x1.7e80f915ce78bp-2
1684=-0x1.370047955f62bp-2
1685=0x1.e1ff3e2bf1585p-6
1698=0x1.11c8e3c51d4efp-2
1701=0x1.897306eac2be6p-5
1702=-0x1.f37d6cd303d4ap-6
1704=0x1.8c6b1b9ff1466p-3
1705=-0x1.65a47b0be5888p-5
1713=-0x1.b85aaadb03792p-15
1714=0x1.98a821b3ce79cp-3
1715=-0x1.123a7437dbb7cp-2
1716=-0x1.8c8e33f4b2dcbp-17
1717=0x1.3d39723b3fa1p-2
1724=-0x1.0db1d096c7c42p-8
1725=0x1.8d7d6b1b520d5p-5
1726=-0x1.866485fb5129p-6
1728=0x1.669f652c8dcdap-4
1729=-0x1.81ff9a7e2dab1p-6
1737=0x1.6213bb64d45fdp-2
1738=-0x1.65e3a4ac66a6dp-5
1740=0x1.5bfc4ae93ffe5p-5
1741=-0x1.060722b1f1cbcp-7
1743=-0x1.72298b79f3492p-10
1744=0x1.0c0829b8f7734p-7
1745=0x1.17cf8309144d4p-9
1749=0x1.c5ed4f9ab49b1p+0
1761=0x1.f36861f7593cap-3
1766=0x1.74f876b2863cfp-2
1767=-0x1.436b193dea6e7p-5
1769=-0x1.3393dc6f39acp-3
1770=0x1.fe4a703cf857cp-3
1772=-0x1.5050ea548d22p-3
1773=0x1.7d575718bfc43p-4
1779=-0x1.2c2159b8e2382p-8
1785=0x1.3ece0aa3835eep-5
1788=-0x1.f7b43811c5a5ap-3
1790=0x1.8d3999e35f441p-2
1815=0x1.0822fc5f60ce2p-6
1816=-0x1.8fa45f7b0724ap-3
1817=0x1.85586d50c4f7p-4
1818=0x1.8bc4bb2c073fbp-2
1819=-0x1.74bce8f6d9d14p-3
1823=-0x1.04fb17d05b472p-7
1824=-0x1.e3816316aba11p-1
1826=0x1.fecad68f06e64p-3
1839=0x1.9a55354ab68f8p-8
1854=0x1.a6a694fcf37bdp-3
1855=-0x1.4d8e84a127d4ap-6
1858=0x1.0ef6fadbc6514p-9
1859=-0x1.d591b165d3a7ap-12
1860=-0x1.580fd1799a104p-10
1863=-0x1.aa918ba7b0637p-14
1871=0x1.77305947e8a7cp-4
1872=-0x1.1f78d4c572239p-4
1873=0x1.9e1448575c84p-5
1874=0x1.36ab3a38749b2p-8
1875=-0x1.37f7665947c96p-5
1876=0x1.2ec5f8c0b5891p-4
1883=0x1.c226538ccfa22p-3
1890=0x1.0f5c8d3012abcp-8
1891=0x1.a6db8db6ad058p-7
1892=-0x1.a6020067ce9eap-1
1896=0x1.4db509b04b8bfp-4
1898=-0x1.1ec042aac455bp-4
1899=0x1.08549bd4c2f32p-8
1905=0x1.3c35802ddba12p-6
1968=0x1.c494c52502fb9p-10
1971=-0x1.21f1a54b2810cp-2
1972=0x1.a132f74a7448fp-4
1973=0x1.0c4571301083ep-5
1974=-0x1.37c0cb85e109ep-4
1975=0x1.251569c42f41p-3
1979=0x1.ea8f0b4c6a5dep-5
1980=-0x1.9fb77545e262ep-5
1982=0x1.b1cb94f5bbf17p-3
1986=0x1.231a3630d6859p-6
1998=-0x1.684097b339feap-2
1999=0x1.25ef06fce9edap-1
2007=-0x1.7a0bb04170bc1p-6
2008=0x1.15e7159705df6p-5
2010=-0x1.00e9fbd11f237p-5
2011=0x1.e2cac1b558d1p-6
2012=0x1.0e7f8330e9c51p-7
2013=-0x1.aa86cc1db2b54p-5
2014=0x1.6fa2b62f9c109p-10
2015=0x1.749950525ca6ep-7
2019=0x1.0326db0f98145p-1
2020=-0x1.625d61e9073b6p-2
2034=0x1.8fb0df33a178cp-5
2035=-0x1.94ddc11a27415p-5
2037=0x1.6bdfcc2173b91p-4
2038=-0x1.032af4404e75fp-5
2042=-0x1.c99caf2439376p-5
2045=0x1.e59fad87fdd4ep-3
2064=0x1.94e8e9db3574bp-2
2065=-0x1.cbf75eb06f582p-3
2067=0x1.27dba63af330dp-1
2068=-0x1.4114211f62e92p-2
2076=0x1.54ac5bead05ap-1
2077=-0x1.ad426189f38c5p-2
2079=0x1.7454806244cc6p-9
2121=-0x1.a4771c3054ceep-4
2123=0x1.52d3bf355ad07p-3
2124=0x1.0c57b0e038fc4p-8
2125=-0x1.10afc84c24f82p-15
2127=0x1.391d7788d4722p-7
2128=-0x1.462de0af04b3fp-10
2136=0x1.6f362a0a99e46p-11
2138=0x1.365902cd0c02ap-6
2139=0x1.d329ec9d3687p-14
2144=0x1.25d3f332ebc04p-5
2145=0x1.290292a6aa0dcp-5
2146=-0x1.e1e2262ced63dp-10
2160=0x1.5ac53d8e13886p-8
2163=0x1.5c3c7e1695caep-10
2181=0x1.5bc5dc4874751p-8
2199=-0x1.2d089be445248p-6
2201=0x1.71be1c965f325p-4
2202=0x1.40437c70962cdp-6
2207=-0x1.e2b7b50c9d54p-5
2208=-0x1.26058010c4847p-4
2210=0x1.65ab8b3d8471ep-2
2211=-0x1.920dfb489b91ep-4
2212=-0x1.4d23238ef2af2p-5
2213=0x1.60160f3a8c10ap-3
2214=-0x1.ada0904adcb06p-9
2219=0x1.0fc358e947045p-2
2220=-0x1.f2c30522c8581p-4
2222=0x1.36ee961249734p-3
2223=-0x1.2eed6827e54ecp-3
2225=0x1.04b8d617a8155p-4
2226=-0x1.0c0f09ec20ae5p-3
2227=-0x1.6fc9657fc8984p-15
2228=0x1.ad7e55d381b0bp-3
2229=0x1.aac2218f34a78p-7
2230=-0x1.8df6431ccedadp-1
2231=0x1.f77ecab25c9c4p-4
2232=0x1.8059637f50234p-7
2234=-0x1.749dd4420c32p-7
2235=0x1.5dd7d5ab196fbp-4
2250=0x1.6330fa0208748p-2
2251=-0x1.a60285d11bf65p-5
2253=0x1.c7f86f41dd9fp-2
2254=-0x1.10280494ad372p-4
2259=-0x1.ad888a5ddbbcep-7
2269=0x1.fd1a190487656p-10
2271=0x1.ae17a41a562ep-10
2272=0x1.5428846e560e5p-7
2280=-0x1.d9ddb36666c22p-6
2282=0x1.17e0218148da2p-5
2283=-0x1.c33e34bd55d24p-12
2284=0x1.f5ab2e6f4b6c4p-7
2286=-0x1.81c0a4c97aa28p-7
2287=-0x1.3c4ccae549c3p-6
2288=0x1.115c2b44e9d86p+0
2289=-0x1.5236c129dd6p-10
2290=-0x1.08614755f744p-6
2294=0x1.30f98e709c138p-7
2297=0x1.c6e4d35bc7fcdp-6
2298=-0x1.4f95af86fad17p-2
2300=0x1.e145dcba9bd0ep-3
2301=-0x1.9417d58bdc424p-7
2303=0x1.9c010522e7e73p-4
2304=0x1.f3ee1352e8207p-8
2306=-0x1.8ca4d53e4cb28p-11
2307=0x1.50f45c0b367d2p-7
2319=0x1.3be0dd349707p-9
2358=0x1.b0e3706f3b57ep-4
2359=-0x1.bd2b0bc6f2621p-6
2361=0x1.29c479ec4e038p-2
2362=-0x1.0a43e7ad62ca2p-5
2373=0x1.2ea1a34322ea6p-5
2417=-0x1.6f1d953f5010ap-9
2427=0x1.8238716e01382p-3
2439=0x1.284f6e0cae7bcp-2
2440=-0x1.777673a805399p-3
2441=-0x1.a512407cc721ap-6
2442=0x1.eb0b253e59eebp-2
2443=-0x1.b4f03e9a209afp-8
2444=-0x1.15840d502e882p-1
2447=0x1.635a88c1a3e4bp-3
2448=-0x1.b0a9b89bf9f5fp-3
2450=0x1.154191e6993d9p-2
2451=0x1.aaa694717ee24p-5
2466=0x1.a19cb86178a48p-6
2472=0x1.2732e19211262p-5
2478=-0x1.b8d16b3f36429p-7
2484=0x1.50871f2b4837ep-1
2490=-0x1.f36190d2f590cp-5
2499=0x1.861e657e472ep-11
2500=-0x1.9103271326c98p-4
2501=0x1.0b43e017270e3p-4
2502=0x1.0db0053242355p-6
2503=-0x1.c2006b7400a8dp-5
2507=0x1.8bac7bab23939p-7
2510=0x1.c0d8a0cd5c346p-8
2511=-0x1.ec5d453723d27p-6
2512=-0x1.f9384eb957eecp-9
2513=0x1.8f667f538c859p-6
2514=0x1.2486118e66ab4p-6
2515=-0x1.82e732835c01p-9
2519=0x1.a04b100d3c985p-8
2522=0x1.0e91345bc345bp-3
2523=-0x1.352fdd224225dp-5
2524=0x1.44e9f02833493p-2
2525=-0x1.07d0494f2b80fp-5
2526=-0x1.d26c43344e066p-8
2528=0x1.0eb118f94d239p-5
2531=-0x1.b4a96ba11933cp-9
2532=0x1.c010a4ea700ep-2
2538=-0x1.1acb4d53ba02fp-3
2540=0x1.88a58a5c8e5eep-7
2541=0x1.11d8971e19abbp-6
2543=-0x1.a0006439ae513p-8
2544=0x1.baf5200c34f4cp-6
2550=-0x1.5c7257f7ef977p-6
2552=-0x1.1da85f7a60204p-5
2553=0x1.5cc7215f816afp-5
2555=-0x1.dd5deef01405fp-7
2556=-0x1.8c77961d15ce7p-3
2558=0x1.af6c46ba0147ep-3
2559=0x1.2ef5bbe6a9f54p-7
2561=-0x1.14efbffa0d34fp-14
2562=0x1.a2f697945dafdp-6
2565=-0x1.9a89c42a25702p-5
2570=0x1.134f1fb390f21p-3
2571=0x1.a919071bf0943p-3
2573=-0x1.342f553ec2311p-6
2574=0x1.445d95fce39f1p-7
2576=-0x1.a47095ed000cp-14
2577=0x1.5f785deedc14ep-8
2579=0x1.2851c6cd747ecp-5
2580=-0x1.d28220f108f83p-4
2585=0x1.24eb90781fc06p-6
2586=0x1.f6b451bbef5c3p-5
2588=-0x1.f5f64b78d10bfp-10
2589=-0x1.6303e679179edp-5
2591=0x1.a621db594c801p-5
2592=-0x1.0baac5168183fp-5
2597=0x1.a280c57093bbdp-4
2598=0x1.b3b31cf37513ep-5
2600=-0x1.251b1701ede7p-13
2601=-0x1.8fa0ddff067f5p-11
2603=0x1.53b354bab27b3p-6
2604=-0x1.3621ebfcae308p-5
2609=0x1.a3812620041e6p-7
2610=0x1.477957528ce43p-4
2612=0x1.85ef0fb78dbeap-7
2613=-0x1.b9ece461629b5p-5
2615=0x1.91af2d6316a85p-4
2616=-0x1.321afd4579d25p-4
2618=0x1.652d461cb405ap-4
2619=-0x1.397ec3e85557fp-3
2621=0x1.0f8e5fdec3952p-2
2622=0x1.ad313d0fca0ep-6
2623=-0x1.a5b71624300f1p-3
2624=-0x1.1725ebdb8fab6p-10
2625=0x1.cb5d73306f0bp-4
2626=-0x1.231e0c5ab442p-2
2630=-0x1.9b3befd02088ap-10
2631=-0x1.162855b0a1164p+0
2633=0x1.e90a3e4f09545p-3
2634=0x1.d5ff3a7c4c21cp-5
2635=-0x1.88ad24e3528e8p-4
2636=0x1.24ac35fe03c47p-10
2637=0x1.d55f6c2c5c35cp-4
2638=-0x1.0e32c62aa0282p-4
2642=-0x1.b1fb2979f47f8p-9
2643=0x1.3ad2a8000693dp-3
2645=0x1.3b6225a45c8b5p-4
2646=-0x1.8ad725449fcb5p-3
2648=0x1.bb7196e21f6e2p-4
2652=0x1.09e4f58a4f78p-3
2653=-0x1.f20cfba00f6efp-3
2654=0x1.c6bd6e9d1e427p-8
2655=0x1.ac6c5008f0ab8p-18
2658=0x1.e6ab6e36993bp-3
2670=0x1.3654196374e61p-2
2697=-0x1.72cd13f6987adp-5
2698=0x1.5359a2e5ff2a4p+0
2700=-0x1.eb065f8ba5206p-4
2701=0x1.0104bcb520abdp-3
2702=0x1.800a03288f6f9p-8
2703=-0x1.7513ffc3feb5bp-6
2704=0x1.67380571bc221p-3
2711=0x1.5c7ed90f0e0e4p-1
2712=-0x1.071b27bfb6e03p-3
2713=0x1.4bb9abfe15ff7p-4
2714=0x1.0033eccdca45ap-9
2715=-0x1.7f90913787edbp-5
2716=0x1.7d7bbaf26980fp-4
2720=-0x1.bc43be9fe16ecp-5
2723=0x1.bb155be5708a3p-3
2724=-0x1.46a2149a01c4fp-5
2725=0x1.2487529ddd668p-4
2726=0x1.26f269df1be92p-4
2727=0x1.e310d9474531ep-9
2728=0x1.9e36621d295e6p-4
2732=-0x1.6e8c271a38531p-11
2735=0x1.990af232c877ep-2
2736=-0x1.08c6160cacc15p-5
2737=0x1.9667096bf8241p-5
2738=0x1.844081fbfeda4p-5
2739=-0x1.b561a866b581ep-4
2740=-0x1.895a81aff650bp-4
2741=0x1.3edb1484494abp-3
2742=0x1.480d675a1a742p-4
2743=-0x1.0d9d5f8a2cb15p-11
2747=0x1.3c1a649b1e172p-2
2748=-0x1.2795238297f1dp+1
2750=0x1.cfbdc64f0c5d9p-4
2751=-0x1.a6ecf08f6c403p-7
2752=-0x1.10be385653de8p-1
2753=0x1.d506f51a3a5ecp-4
2754=0x1.05b2cabfec272p-4
2755=-0x1.787f6b890d74p-7
2759=0x1.84b1828a1dcb4p-3
2762=-0x1.c19ad6026d9d1p-7
2763=-0x1.2be5d3172fcf6p-9
2765=0x1.da994bbfeabaap-4
2766=0x1.1b017401c07e1p-2
2771=0x1.f497f225abaf4p-3
2772=-0x1.00302f69a9b9ep-1
2774=0x1.b186974007997p-3
2775=0x1.1444a735d3e35p-6
2777=-0x1.56a9e538748fep-6
2778=-0x1.0430ea0f73685p-9
2780=0x1.8aab8df62990cp-7
2781=-0x1.60f9163e3b1cep-5
2786=0x1.a0c221911cf09p-6
2787=0x1.d6e2b7aec3a94p-4
2789=0x1.f5e531d56f608p-10
2790=0x1.151ea7ed9a039p-4
2791=-0x1.d5e4c9699fa1dp-5
2792=-0x1.256bf93dee3b9p-5
2793=0x1.266dda4fa0052p-3
2794=-0x1.6e6ba5a9c0fcp-8
2798=0x1.2bc314430dabp-5
2799=-0x1.6b4224f2ded16p-5
2800=-0x1.6e1f83486bca2p-5
2801=0x1.0bb4d1e3fbc58p-4
2804=0x1.37fd39e1d0f8p-9
2805=-0x1.168ee2f4e53dbp-4
2807=0x1.29563bbfbadebp-4
2811=0x1.086389b19f96p-3
2820=0x1.6d2d131b15ec5p-3
2850=0x1.3184e91d3c23fp-1
2852=-0x1.4f05b20e60f7ep-3
2871=-0x1.0d1160bfb61c1p-8
2872=0x1.2f698bbbb9856p-8
2873=0x1.c1dc2cba7e325p-7
2880=0x1.2a8296b758e0ep-5
2886=-0x1.26ad6e97e819cp-8
2889=-0x1.4b691a84680e8p-3
2891=0x1.e9d9e6bba68afp-3
2897=0x1.f62d1453d269bp-2
2898=-0x1.c79f99b851005p-3
2900=0x1.d43f3e6a6f0ebp-3
2916=0x1.4e60b34e3911bp-6
2922=-0x1.9103aa3e93726p-12
2928=0x1.117c2538d9684p-3
2940=-0x1.c577230b18028p-6
2946=0x1.814e3a302cfaep-4
2948=0x1.e6dac02371a0dp-9
2964=-0x1.5867412e05047p-12
2965=0x1.6cbf28e13061p-9
2966=-0x1.3151efb0198d9p-9
2967=-0x1.628c8d9211592p-12
2968=0x1.374aaac1c40b2p-10
2972=-0x1.62775ee26d5b2p-3
2975=0x1.9d839d8d192bap-1
2976=-0x1.6094b961fc2b1p-2
2977=0x1.b7413a22f108cp-6
2978=0x1.573c48da613e8p-8
2979=-0x1.4eb45f5a3004bp-2
2980=0x1.45c2da29c836dp-5
2984=-0x1.03eef11e9bde4p-6
2987=0x1.df990facdec8ap-1
2988=0x1.027596b4a6bep-3
2989=-0x1.df63772db9e77p-2
2990=-0x1.18c17462e6846p-6
2991=0x1.7832747ef4f79p-3
2992=-0x1.5ef26d5c02cf5p-3
2996=-0x1.d555240ac574fp-7
2999=0x1.73210b4ca8c3fp-4
3003=0x1.607be8e1be6a4p-4
3004=-0x1.0003b4b1f72fbp-6
3005=-0x1.25489f6d7dc36p-5
3008=0x1.d8c0070e7f0bcp-5
3009=0x1.a30b1186e6fe1p-10
3014=0x1.c8c477e2b2476p-6
3018=-0x1.68ef1c7867d27p-6
3020=0x1.836f41a70d784p-6
3021=0x1.bb5762bafffbbp-7
3026=-0x1.40906ece25386p-4
3029=0x1.0de1d4a00462ap-4
3030=-0x1.bc34750c75073p-6
3031=-0x1.79049bfc7d803p-4
3032=0x1.1b3ac23918cfcp-4
3033=0x1.5f0c6b537de72p-6
3038=0x1.2bd10741f3fa1p-5
3039=-0x1.457aefd0be333p-3
3041=0x1.4019859f23b53p-3
3042=0x1.554248bbf2e6cp-4
3044=-0x1.eb2d03f40404ap-5
3045=0x1.4303a04727a76p-3
3047=-0x1.2edafd684771bp-3
3048=0x1.b0d04bd5ea984p-6
3050=-0x1.5bd30eac5b63ap-7
3051=0x1.34d48cf7b22c3p-4
3057=-0x1.e2f76ac02439fp-6
3059=0x1.4a3c522baab83p-6
3063=0x1.52fac202760cfp-6
3069=0x1.e5f685fb69c2ap-12
3072=-0x1.4ab3716117af7p-6
3074=0x1.13f3a65e8cf89p-8
3075=-0x1.f2eccfbbb69cbp-11
3081=0x1.4627ce288278ep-8
3084=0x1.11f67d9629048p-3
3085=-0x1.fdc24d076e5f1p-3
3086=-0x1.659ce1781444ap-6
3087=0x1.2337b40f81e12p-2
3088=-0x1.c86a069090676p-2
3093=-0x1.40670815f1261p-4
3095=0x1.e4800ce45289dp-7
3102=0x1.fee223d244b17p-4
3117=-0x1.4e9c1167ed185p-3
3123=0x1.d43402dca21afp-4
3165=0x1.124ad54cc3d8ap-3
3177=0x1.b485809ccc0a5p-4
3225=0x1.e70d5eec734fp-16
3226=0x1.4a33f927ccc1bp-9
3227=-0x1.4ae325db1d9ebp-8
3228=0x1.0b42333575546p-6
3229=0x1.e437b6c2ad399p-9
3249=0x1.b2dfcbfc6b9d6p-8
3250=-0x1.5479531833fb5p-9
3255=0x1.1d03b9b4e5e97p-4
3256=-0x1.2793b3e22a55dp-5
3257=-0x1.b1a07b3d63a8p-6
3258=0x1.1f7101916e792p-3
3259=-0x1.d2268690db5f1p-6
3263=0x1.d88bd21bc199ap-6
3264=-0x1.45390e5c4c7aap-3
3266=0x1.09fa7f373fb9fp-5
3267=-0x1.04c21691f098cp-3
3269=0x1.5e3e804054e01p-3
3270=-0x1.7b67b2dac1fc3p-3
3275=0x1.c59b49e8a3e5ap-3
3278=0x1.905ffb83dccbdp-5
3279=-0x1.b511ebccd7c52p-10
3281=0x1.4a9b032a1ab5ap-9
3282=0x1.9c3ec7e89cd2bp-3
3284=-0x1.8455a4da5b9f5p-3
3288=-0x1.6b297be4eda37p-5
3294=0x1.472e593695f18p-4
3360=-0x1.ca4d1e1ecf932p-3
3362=0x1.8aca820b1a894p-3
3363=-0x1.a72024fb4684cp-3
3368=-0x1.61c69a519273p-13
3371=0x1.b2a7dde02cf12p-2
3375=0x1.227c3b62e15d2p-10
3381=0x1.b4f0b643dd006p-10
3453=-0x1.18d13cc9362adp-8
3454=0x1.8d5ab54d1dbc3p-5
3456=-0x1.8eac6607cb12p-10
3457=0x1.be43c8e365c35p-6
3465=0x1.9fc650690fa18p-8
3466=-0x1.244e311d375c2p-8
3468=0x1.38b16de9b678dp-7
3469=-0x1.3075bb30102f4p-8
3480=-0x1.7dde3c68bd0e8p-6
3481=0x1.78f0649979e98p-5
3483=0x1.4903ff5cbfbe8p-8
3486=-0x1.45b336b71e375p-3
3491=0x1.e13e4c12d7f3p-3
3492=0x1.331cfe41d7bb7p-2
3516=0x1.9f6921dfe2df4p-3
3517=-0x1.5dd1c194f5ea5p-1
3518=-0x1.41e643f211a96p-5
3519=0x1.cf78a92b674e9p-2
3520=-0x1.dea6a1bfcd28ep-5
3521=-0x1.f41a34ab56dcp-3
3522=-0x1.7b7f485ce8aap-2
3524=0x1.5a90c9edf12d6p-7
3525=-0x1.e8dca6923b77fp-4
3527=0x1.9a5721216b698p-3
3528=0x1.1053bdeadf2d8p-14
3549=0x1.fd85f2fee7392p-3
3631=0x1.db2e218573772p-5
3645=0x1.8072c92934d94p-7
3647=-0x1.fc3302d9609c8p-7
3648=0x1.7780865ccfb44p-9
3649=0x1.79d40d05a7c08p-3
3657=-0x1.6e598d4a3d30fp-3
3658=0x1.d97f74531ec66p-1
3660=-0x1.5f1495a34d81fp-3
3661=0x1.0a45f023ecf15p+0
3669=-0x1.080ceedf8d28cp-13
3670=0x1.e80be965d3e8ep-9
3672=-0x1.d568b7437a42p-5
3673=0x1.9418358077fefp-4
3675=-0x1.ca6a2e518c98cp-5
3676=0x1.b19bddd37fc56p-4
3697=0x1.098670500b5b1p-4
3699=-0x1.c64a9aeb86c41p-6
3700=0x1.5c68b232cc08bp-3
3708=0x1.8e4ad3debfa6dp-13
3711=0x1.eed3024680faep-10
3723=-0x1.be4a4c95fefb6p-3
3724=0x1.a014114ca9789p-1
3729=-0x1.d776d50d19754p-4
3731=0x1.6d1fa88662f86p-2
3732=-0x1.cf0da73c0d8a4p-4
3734=0x1.0cc0d57a8706p-3
3735=-0x1.9c775e8ef55bep-4
3740=0x1.1ea0bd8e81f9p-1
3744=-0x1.4ab7f3e2ee4a5p-4
3746=0x1.94a2d0988c26bp-4
3747=-0x1.70c685a80873p-5
3749=0x1.2ea362bd52842p-7
3750=0x1.3c164844cf457p-3
3751=0x1.8b359609d038ep-5
3755=0x1.a190aa63e60f8p-4
3756=-0x1.d5da63155d407p-3
3758=-0x1.dc052ca23ce01p-6
3759=-0x1.0a25bb885ca54p-4
3761=0x1.d88744eaa8332p-4
3762=-0x1.f35c5ae587805p-6
3767=0x1.f23691ff16407p-6
3770=0x1.2137c6bbfc5f1p-3
3771=-0x1.bae7a1279fe72p-5
3772=-0x1.d77b8a06975d2p-1
3773=0x1.2a953d0b16ff5p-4
3774=0x1.246d4fa1bf1f3p-2
3776=-0x1.add067abc2142p-2
3777=-0x1.11f326199c0dbp-7
3779=0x1.d45a2994262bp-9
3786=0x1.30f82b5885bddp-5
3788=0x1.62643fd654eadp-6
3792=-0x1.7a0fc3d954fe9p-3
3793=0x1.03e75492306a8p-6
3794=0x1.b25e5a1e6c7cp-4
3795=0x1.b0db8f2b6312cp-6
3796=0x1.2e60ed9700e34p-6
3801=-0x1.3419e21ef25ccp+0
3803=0x1.15c99c49cb0b6p-2
3813=0x1.875c421bcaddcp-8
3819=0x1.8a453f7c58de9p-3
3858=0x1.74470cddc0077p-3
3859=-0x1.c683152ec326fp-4
3860=-0x1.cb022ee4aae36p-5
3876=0x1.333e476b32dedp-7
3877=-0x1.69a5d84b4355cp-12
3879=0x1.7304cdfc87d04p-2
3881=-0x1.cfb989f578bd8p-4
3882=0x1.5fcebd7828398p-5
3888=0x1.777e321755292p-17
3897=-0x1.5b36803063cb7p-5
3900=-0x1.b694abc4cf714p-7
3901=0x1.4aacb5a9bc5a7p-8
3908=0x1.eeb57ca314e69p-5
3972=0x1.42eee39c1cd64p-2
3999=0x1.f0be73a3cd0ep-6
4002=0x1.69b204e5ac07ep-3
4077=0x1.9a31d72f07dd9p-6
4095=0x1.6747224fa99cdp-7
4104=0x1.9a31d72f07dd9p-6
4122=0x1.15aad71333d1cp-5
4131=0x1.821e52e926264p-3
4132=-0x1.a6fc07c61e2b5p-6
4133=-0x1.1b5316a38f49p-7
4134=0x1.b137afb210c91p-2
4135=-0x1.c3d3d59a074f4p-7
4164=-0x1.397980dbaaee2p-5
4165=0x1.44c3de391ac74p-7
4166=0x1.585097265bc7fp-2
4167=-0x1.9cb5b88559319p-6
4168=0x1.3c9377d9299a3p-6
4172=0x1.547e448562c9ep-4
4175=0x1.4443a74d47421p-9
4203=0x1.07f6ac7e0b834p-4
4266=0x1.1848a0d007e8ep-10
4308=0x1.8bc7510902fccp-5
4320=0x1.d89a076475b28p-5
4329=0x1.8463b80dfaa69p-3
4330=-0x1.30bf5bad8d7fap-5
4332=0x1.00979c64d9862p-1
4333=-0x1.dd19022488b26p-6
4359=0x1.84469c4cc38ecp-5
4391=0x1.9d29399ed5918p-9
4392=-0x1.8800e5f9e6364p-4
4398=0x1.47117fc0db20dp-2
4400=0x1.2bc4d285a563dp-8
4404=0x1.bdc74140155c8p-1
4410=-0x1.24b3170fdc7dcp-2
4415=0x1.70c403664edcep-6
4418=0x1.9f7ed67012d52p-9
4419=0x1.44df87d777aefp-6
4421=-0x1.1c71671064af8p-6
4440=-0x1.0c2a18b18734ep-3
4441=0x1.38b3bf21c5801p-3
4443=-0x1.fc81ecfceabe3p-6
4445=0x1.6f26aa63f161fp-1
4452=0x1.50a7191ab07a4p-4
4454=-0x1.2fabb78b47506p-10
4475=0x1.04f704b4c0ce7p-3
4484=0x1.0125693fe7f12p-2
4512=-0x1.c266fe19280f9p-4
4514=0x1.3cf36f314b8bp-3
4523=0x1.efd697e46bf5fp-3
4525=-0x1.7ba7a84f2363p-6
4526=0x1.35e9f6ae19358p-4
4535=0x1.62218a6481d28p-3
4548=-0x1.c266fe19280f9p-4
4550=0x1.3cf36f314b8bp-3
4554=0x1.5c70d7b3917abp-5
4560=0x1.4a7414112904bp-2
4569=0x1.85ad0f67c5363p-2
4572=-0x1.2c5aa336f17b5p-3
4573=0x1.053971559d1cap-4
4574=0x1.283002f7f3517p-5
4575=-0x1.26b1c5ef207b1p-3
4576=0x1.ad628778cb1a2p-4
4580=-0x1.0c9c8ed0eff52p-4
4583=0x1.51002add71b72p-1
4584=0x1.12b7b1851e5e4p-6
4585=-0x1.cb78be91d6f3bp-5
4586=0x1.99436759a036ep-5
4587=0x1.d2a877da51551p-5
4588=-0x1.d141dfe0fe7f5p-6
4595=0x1.cd01620c2ff03p-4
4599=0x1.a61a5728b65cp-9
4601=0x1.1403391a70566p-4
4602=0x1.3f3e02344eb58p-3
4610=0x1.25d43a3de451bp-3
4611=0x1.8938a4dadb189p-4
4613=-0x1.7079c4ea384a6p-3
4620=0x1.9402e21298c5ap-4
4623=-0x1.8d8af3db03cbbp-4
4624=0x1.1d0b851856f3dp-7
4625=0x1.44c51db99e40ap-4
4626=-0x1.1139ace6ffb93p-3
4627=0x1.2605160b294a2p-4
4631=-0x1.27c8b184fc8e2p-5
4634=0x1.49c6c6b16a45ep-2
4635=-0x1.b9d6adbe549dp-14
4636=0x1.ecd8d5e8822d8p-12
4637=-0x1.0dce883ca8a8ap-14
4638=0x1.d9e524bff9e99p-13
4639=0x1.1fce960309cfp-11
4646=0x1.578336cd8e1f8p-3
4647=0x1.8938a4dadb189p-4
4649=-0x1.7079c4ea384a6p-3
4653=-0x1.b920e382d2456p-4
4655=0x1.d969b3f67047ap-4
4659=0x1.f03f7cebe636p-7
4661=-0x1.86fa83a532f7bp-6
4662=0x1.87fec5a23f05ap-11
4667=-0x1.3c3881d29cb61p-9
4668=0x1.62bf082fb4084p-2
4670=-0x1.f8daf4acc0985p-9
4677=-0x1.849cef79fa301p-1
4679=0x1.9365d2512ed4p-1
4680=-0x1.1647baf42955ap-7
4681=0x1.1a5544ed907b4p-4
4682=-0x1.ec5304618cd9p-8
4683=0x1.5b085e89f79b5p-5
4684=-0x1.256b63502e6bap-15
4685=-0x1.d6ad5c2e7131cp-7
4686=0x1.93e555689b455p-5
4688=-0x1.2c12ce3c5eda9p-4
4689=-0x1.17f4f93eeb3cfp-2
4690=0x1.93684458e865p-2
4691=0x1.3e5bf0287386bp-4
4692=-0x1.7161c72364454p-5
4694=0x1.8f9486e17a68cp-4
4698=-0x1.8b57e688fec32p-5
4703=0x1.672446c826e8bp-3
4704=0x1.0e6201cd845a3p-4
4706=-0x1.2e3d1048d88f6p-6
4707=0x1.ab9a6a45f2c2p-10
4708=-0x1.0fce3853d371dp-9
4709=0x1.7e9422ab3e04p-11
4710=0x1.1cb887df3eb8p-5
4716=-0x1.4fb1f1e219b5ap-7
4718=-0x1.6f12a5d89366fp-10
4731=-0x1.cb048ea70cf02p-5
4732=0x1.88f2c0435aaaep-6
4734=-0x1.34ae192c1abf3p-4
4736=0x1.9840a74956e66p-4
4737=-0x1.7229eba0a1c33p-5
4739=0x1.992bbbab2eaa2p-5
4740=0x1.3eef0dacb4fb6p-10
4741=0x1.4333b38c17f48p-17
4742=0x1.9f6beb3564dedp-10
4743=0x1.024e1c22c1cf7p-8
4744=0x1.b1d39be4f93d2p-6
4748=0x1.73d57dcd9d5acp-3
4749=0x1.09882096a0c5ep-7
4751=-0x1.be7adac6f71dap-13
4761=0x1.edbbc470d57f1p-6
4779=0x1.389c95664097cp-9
4782=-0x1.36be40e525f22p-6
4783=0x1.1a090bc1e923dp-3
4784=-0x1.8f39c531a3792p-9
4785=-0x1.2e2ba56de1072p-8
4787=0x1.7718d18433b59p-9
4788=-0x1.970aad121f5dcp-8
4789=-0x1.c0ce2c7fdbf15p-6
4790=0x1.dbb0c2598e61p-4
4797=-0x1.fa4dd81c93b0bp-3
4798=0x1.7fb50e58f4a9dp-3
4799=0x1.ca8d40422560ap-5
4803=-0x1.530315987c07bp-5
4805=0x1.fec241c1a9073p-5
4806=-0x1.6cd3e7c95627fp-2
4808=0x1.6315e8a6e6ff2p-2
4809=0x1.c7c81fedc24d2p-4
4811=-0x1.421786f06b163p-4
4812=0x1.525770be42068p-6
4814=-0x1.60f985e6a74fdp-8
4830=-0x1.e8212e12253fcp-5
4832=0x1.db7da649ef20ep-6
4833=-0x1.74960b17470b7p-2
4839=0x1.b3818f12f8429p-7
4841=0x1.41ba76639b1bcp-5
4842=0x1.21871a40ec36bp-3
4843=-0x1.d85b383e4b60ap-5
4845=0x1.4b1d803249ea8p-2
4905=0x1.19f1a00dded54p-9
4914=-0x1.1aefd9d702951p+0
4915=0x1.df2f03ddd57fcp-1
4923=0x1.676a1ef72969p-13
4926=0x1.676a1ef72969p-13
4932=-0x1.19c09a62be247p-6
4934=0x1.34663ed83ac4ep-10
4938=-0x1.2b4d10637f17ep-6
4939=0x1.9127abca0b494p-5
4941=0x1.c32946071248ap-3
4943=-0x1.07def47cbffc4p-3
4944=0x1.895950acfb2b1p-4
4946=-0x1.04a20b0612087p-4
4947=-0x1.07821340914a7p-4
